,0,1,2,3,4,5,6,7,8,9,10,11,12,13,14,15,16,17,18,19,20,21,22,23,24,25,26,27,28,29,30,31,32,33,34,35,36,37,38,39,40,41,42,43,44,45,46,47,48,49,50,51,52,53,54,55,56,57,58,59,60,61,62,63,64,65,66,67,68,69,70,71,72,73,74,75,76,77,78,79,80,81,82,83,84,85,86,87,88,89,90,91,92,93,94,95,96,97,98,99,100,101,102,103,104,105,106,107,108,109,110,111,112,113,114,115,116,117,118,119,120,121,122,123,124,125,126,127,128,129,130,131,132,133,134,135,136,137,138,139,140,141,142,143,144,145,146,147,148,149,150,151,152,153,154,155,156,157,158,159,160,161,162,163,164,165,166,167,168,169,170,171,172,173,174,175,176,177,178,179,180,181,182,183,184,185,186,187,188,189,190,191,192,193,194,195,196,197,198,199,200,201,202,203,204,205,206,207,208,209,210,211,212,213,214,215,216,217,218,219,220,221,222,223,224,225,226,227,228,229,230,231,232,233,234,235,236,237,238,239,240,241,242,243,244,245,246,247,248,249,250,251,252,253,254,255,256,257,258,259,260,261,262,263,264,265,266,267,268,269,270,271,272,273,274,275,276,277,278,279,280,281,282,283,284,285,286,287,288,289,290,291,292,293,294,295,296,297,298,299
airplane,0.48249,0.10947,-0.38012,-0.76237,-0.405,0.20356,-0.060407,0.17968,-0.096102,-1.0428,-0.10701,0.027911,0.34874,-0.69299,0.1286,0.21458,0.71598,0.14232,-0.17868,-0.36326,0.27102,0.80712,0.36249,0.27473,-0.19904,0.26343,-0.06467,-0.47447,-0.38977,-0.37327,-0.19415,-0.11692,-0.14147,-0.33381,-0.026066,0.24894,-0.71621,-0.53107,0.0035624,0.43346,-0.6176,0.028995,0.12603,0.13997,-0.21332,0.0069925,0.83838,-0.29416,0.29387,-0.098262,0.51544,-0.48416,-0.01073,0.36081,-0.86698,-0.10285,0.034336,-0.26605,0.16994,-0.11922,-0.51609,-0.025428,0.29007,-0.033609,0.01233,0.023592,-0.033913,0.10354,0.098979,0.41569,0.44558,0.21516,0.048604,0.095349,-0.06602,-0.030882,-0.64128,0.43219,0.10899,0.40453,-0.54511,0.10702,0.40346,0.45486,0.27895,-0.28799,0.36025,0.29593,-0.65381,0.34137,1.0454,0.60018,-0.004203,-0.34123,0.25509,0.14634,-0.5186,0.12751,-0.26933,0.3588,-0.022525,0.3201,0.47176,0.13705,0.10136,-0.52567,-0.073272,-0.2095,-0.30519,0.035979,-0.13644,-0.092265,-0.026473,-0.58295,-0.18521,-0.20245,0.35445,0.5488,-0.40559,-0.17176,-0.20037,-0.47563,0.30336,-0.15653,-0.29525,-0.070344,0.24667,-0.31566,0.46041,-0.25244,0.36274,0.49553,0.45166,-0.11631,0.0504,0.54955,-0.55834,0.2644,-0.90379,-0.21345,-0.062305,-0.1847,-0.043905,0.057101,-0.30533,-0.092914,0.36475,0.1734,-0.16249,-0.087672,0.66712,0.18148,-0.01696,-0.29694,0.70782,-0.045571,0.35646,0.44506,0.20444,0.040122,0.26664,-0.55207,-0.38035,0.29181,0.24158,0.015992,0.35228,0.2651,-0.33613,0.1401,-0.16352,-0.4345,0.45149,-0.10474,-0.40161,-0.1536,0.43143,-0.36638,0.32879,-0.55312,0.60621,0.19892,0.27036,0.24019,-0.18074,-0.44632,-0.038674,0.50288,-0.071317,0.21485,0.11721,0.26882,-0.34583,-0.53828,0.028468,-0.04108,-0.18049,0.54913,-0.1938,-0.28779,0.19208,0.20461,0.31584,-0.40555,0.32832,-0.18847,0.16624,0.17866,-0.35777,0.12583,-0.37076,-0.077676,-0.38631,-0.14868,0.11462,-0.43996,-0.32047,0.22603,-0.43256,0.45541,0.47033,0.21654,0.35986,-0.052495,-0.32195,0.089182,0.056137,0.012531,0.1453,-0.38879,0.22449,-0.023288,-0.12832,0.17218,0.64614,-0.22541,-0.25882,0.15567,-0.42111,0.04148,0.62695,0.036762,-0.20483,-0.035261,0.21228,-0.62769,0.14941,-0.22647,0.40848,0.7197,-0.29457,0.091468,-0.039419,0.14294,0.31452,0.37622,-0.042161,-0.096251,0.32834,-0.53085,0.28434,-0.30959,0.009254,-0.069594,0.68535,0.20997,-0.18779,-0.088381,-0.19469,0.2744,0.77746,0.46594,-0.038797,-0.15417,0.25514,-0.15721,-1.3273,-0.25784,-0.35633,-0.56126,-0.60894,0.25801,0.30416,-0.08841,-0.046124,0.037309,0.16093,0.57507,-0.43495,0.081871,0.39896,-0.42762,-0.16746,-0.50766,0.22887,0.351,-0.63862,0.076178,-0.22075,0.42687
ant,-0.26462,0.80371,0.24113,0.75088,0.13954,0.21279,0.074054,0.50305,0.028712,-0.3397,0.49898,0.52117,0.12693,0.11165,0.6053,0.28955,-0.34057,-0.32977,-0.69513,0.37418,0.48189,0.69114,0.57529,0.22168,0.058851,-0.69581,-0.16544,-0.57524,-0.59995,0.48872,-0.61876,-0.10984,-0.28259,-0.064273,0.64005,-0.10761,0.56389,0.079632,-0.27285,0.65915,0.0030866,-0.11045,0.18089,0.70446,-0.11905,-0.075152,-0.00083497,0.17923,-0.20086,-0.21176,0.57574,-0.0034941,-0.012597,0.57117,-0.34887,-0.10037,-0.13198,-0.74136,0.64223,0.20721,0.4269,-0.39316,-0.044641,0.21916,0.034336,0.11608,-0.040133,0.42633,0.49134,0.27275,-0.050595,0.73782,-0.17546,-0.5092,-0.67848,0.59694,-0.2729,-0.39995,0.99857,0.292,-0.01887,-0.18575,-0.15303,-0.7604,-0.12474,-0.26177,0.1965,0.17193,-0.1414,-0.44908,-0.27025,0.17036,0.36881,-0.57041,-0.084914,-0.10737,0.27042,0.28322,0.18391,-0.33328,-0.041643,0.017498,-0.60978,0.0081436,0.30629,-0.2776,0.054183,-0.42131,0.031881,-0.42202,0.16575,0.077353,-0.90929,0.35719,0.21957,-0.24691,-1.0102,0.26561,-0.12201,-0.25717,-0.12803,0.28769,-0.33642,0.39297,-0.11502,0.21417,-0.28486,0.22808,0.33648,0.11342,0.48565,0.096528,0.21171,-0.31788,0.15504,0.43937,0.57417,-0.40652,-0.42042,-0.30108,-0.26656,0.21194,-0.52287,-0.83524,0.57186,-0.27365,0.34104,-0.031586,-0.19571,-0.51703,-0.11853,0.38279,-0.014182,0.7151,0.47002,-0.004429,0.63809,0.25183,0.19081,-0.17596,0.12589,-0.15654,0.63417,0.083285,-0.2511,0.5298,-0.054367,0.3593,0.057781,-0.77505,-0.40592,0.57346,0.44059,0.027729,-0.027633,-0.034606,-0.49755,0.2113,0.056514,-0.21554,0.30973,-0.75063,-0.2489,0.26612,-0.35562,-0.22976,-0.12237,-0.083036,0.91708,-0.16324,-0.037054,0.51803,-0.015321,-0.4216,-0.06838,0.037965,0.42812,-0.2702,0.22396,-0.1074,0.4432,0.065414,-0.47955,0.59924,0.19107,0.15692,0.18725,-0.16039,0.37503,-0.091961,-0.20703,-0.41497,-0.2196,-0.44331,0.33792,0.64047,0.38815,0.38828,0.56711,-0.20226,-0.55474,-0.098086,-0.11158,0.39892,-0.32986,0.098409,0.01708,-0.19514,-0.10622,0.40534,-1.0103,0.35123,0.026638,0.47347,-0.13883,0.68044,0.16154,0.26299,0.22072,-0.29173,-0.22105,-0.28998,-1.2285,-0.012606,-0.5775,-0.1463,-0.18566,0.17772,0.1622,-0.16629,-0.1003,0.57059,-0.64476,0.14657,0.79353,0.16534,-0.23657,-0.30207,0.0017815,-0.53339,-0.17044,0.048584,-0.51085,0.12293,0.15256,0.11063,0.15986,-0.021511,-0.27904,0.38925,-0.70351,0.32463,-0.18736,0.11467,0.35798,-0.044416,0.075632,0.41394,-0.82386,-0.33095,-0.74375,-0.58214,0.67802,0.38854,-0.74671,-0.12889,0.3654,0.19212,-0.13052,-0.66218,-0.052364,-0.74158,-0.27065,0.58048,-0.61165,-0.064773,0.025781,0.19857,0.41034,0.19518
apartment,-0.47123,0.38333,-0.68614,-0.29108,0.20617,0.46783,0.11737,-0.4058,-0.041971,-0.81328,0.065553,-0.30862,0.40068,0.38825,-0.035463,0.052028,0.058605,0.028819,0.33681,-0.017417,0.1463,0.22245,-0.0019626,0.021374,0.11495,-0.14329,0.29663,0.0429,-0.45605,-0.3645,-0.31378,0.41194,-0.22859,0.2907,0.011705,0.032819,-0.3582,-0.23326,0.058707,-0.1326,-0.37183,-0.15488,-0.67857,0.61619,0.18229,-0.08179,0.40099,0.21816,-0.17224,0.157,0.11568,-0.33467,0.31532,-0.020863,0.83514,-0.17586,0.34268,-0.12431,-0.48762,-0.46573,-0.27497,-0.0016634,0.51668,0.72318,0.13946,-0.1353,0.41294,-0.18746,0.17192,-0.62125,-0.4519,-0.40844,-0.74782,0.12462,-0.77305,0.31711,-0.31126,-0.25463,0.38329,0.28332,0.11657,0.29849,0.15912,0.62685,0.096005,-0.014655,0.13778,-0.30305,-0.27583,-0.11145,0.6241,0.29749,0.25678,0.41839,0.047026,-0.26458,-0.24481,-0.5158,0.37203,-0.67721,-0.38513,0.13724,-0.15598,-0.042468,-0.27876,-0.0011626,1.1635,-0.27465,-0.00597,-0.24741,-0.76593,0.048802,0.091328,0.18033,0.012194,0.47241,-0.10174,-0.15686,-0.14568,-0.3618,0.58741,-0.016539,0.19117,0.12279,-0.018978,-0.14896,0.10968,-0.66233,0.21038,-0.61663,0.11384,0.46856,0.12129,0.048177,0.44365,-0.081109,-0.44272,-0.21335,-0.41275,-0.56678,0.44652,-0.096602,0.094795,1.0079,-0.6198,-0.52168,0.035715,0.41981,-0.56779,0.090492,0.099098,0.34527,0.031978,0.022141,-0.17449,0.5388,0.020664,0.36007,-0.092147,0.43266,0.5766,0.20122,0.45697,-0.018917,0.26974,0.14752,0.17392,-0.23822,0.41929,0.25281,-0.51399,-0.37434,-0.14797,0.10883,-0.45461,0.20738,-0.41838,-0.10126,0.037753,-0.46669,0.15777,-0.59154,-0.24109,0.079252,-0.14219,0.75989,0.36656,0.43254,-0.042327,0.84156,0.82927,-0.48753,-0.80632,-0.32552,-0.20851,-0.19966,-0.80086,0.10334,-0.38202,-0.013972,0.35686,-0.62933,-0.19654,0.23978,-0.071649,-0.38493,-0.085643,-0.057679,-0.62146,0.099153,-0.60007,0.61558,-0.26748,-0.18192,0.20036,0.39085,0.21861,-0.16114,0.053056,0.085441,0.55594,-0.15381,0.16327,0.53961,-0.052343,0.13041,-0.14113,-0.31368,-0.23476,0.013309,0.31126,-0.24788,-0.34783,-0.088871,0.52399,0.097087,0.33597,0.44262,-0.15601,-0.05088,0.59325,-0.319,0.3674,0.51253,0.39975,-0.19523,0.60138,-0.28107,-0.31637,-0.066047,0.46616,0.2474,0.51937,0.14534,0.70003,0.32607,0.12204,0.36061,0.27735,-0.15835,-0.46809,0.36447,0.26107,-0.80073,-0.11563,-0.33598,0.21191,0.22298,-0.0068486,-0.16407,-0.32288,0.05064,-0.1788,-0.14629,0.051199,0.20133,-1.9198,0.7446,-0.39764,-0.056425,-0.44826,0.65975,0.18848,-0.19582,-0.70455,1.4233,0.14605,0.65581,-0.16335,-0.3599,-0.31542,-0.26152,0.19373,0.071406,0.40318,0.3593,0.57019,0.084122,0.19419,0.532
arch,0.23834,-0.37957,0.36808,-0.78334,-0.022668,0.14949,-0.015956,-0.13499,0.060803,-0.39301,-0.25954,0.35962,0.56822,-0.13028,0.55962,0.32839,-0.2231,0.16375,-0.0089323,-0.33173,0.17849,-0.37369,0.57155,0.3137,-0.50519,0.23866,-0.13103,-0.39278,-0.33838,0.40524,-0.49283,0.66701,0.53814,-0.39884,-0.074614,-0.078554,-0.22267,-0.49107,-0.022092,-0.16846,-0.28882,0.2674,-1.2403,-0.1358,-0.16998,0.26565,-0.13627,0.081745,0.17848,-0.50213,-0.14616,0.11144,-0.074035,0.065369,-0.0042907,0.5159,-0.017793,0.44869,-0.026942,0.15448,0.522,0.25568,0.18178,-0.10437,0.23594,-0.37638,0.31467,0.47436,0.48625,-0.25563,0.091301,0.066547,-0.05359,-0.12136,0.80667,-0.0295,0.03463,-0.26612,-0.82778,0.31101,0.44568,0.42316,-0.31772,-0.70423,0.59361,0.10144,0.31031,-0.16565,0.18025,0.30154,0.53446,0.46784,0.96295,0.44895,0.11608,0.5848,0.46683,-0.018518,0.2881,-0.14559,-0.093287,-0.30137,-0.14189,0.17384,0.22714,0.24885,-0.41232,0.26657,0.44558,-0.33172,-0.36302,-0.60956,-0.20832,-0.48039,-0.31097,-0.67357,-0.69368,0.20677,0.069093,0.02277,-0.32971,-0.58017,-0.31512,0.2304,-0.5727,-0.61962,0.24546,-0.24537,-0.018768,0.025182,0.068035,0.33846,-0.0073259,0.80937,0.067965,-0.072485,-0.030789,-0.34129,0.039826,0.25379,-0.11436,0.36755,-0.038406,0.045466,0.23279,0.22795,0.17526,0.054326,-0.19501,-0.44574,0.33112,0.14188,-0.71342,-0.1427,0.24469,0.10402,-0.12688,0.33198,-0.26821,0.54877,0.090226,1.0877,0.48948,0.081467,0.36204,0.48028,-0.253,-0.42454,0.38804,-0.3691,-0.1631,0.22196,0.020822,-0.44773,0.078414,0.27235,-0.67448,0.61212,-0.54532,-1.0993,0.50898,0.23834,-0.054651,0.060804,-0.079749,-0.018843,-0.3428,0.33437,0.3829,0.49514,-0.24044,0.25241,0.070678,0.37728,-0.31376,0.29764,0.60552,-0.61486,0.5632,0.63695,1.6017,-0.7567,0.073379,-0.60595,-0.14494,0.089826,-0.39961,-0.11102,-0.17405,0.42189,0.51625,0.071563,0.62014,-0.49197,0.0081321,-0.4452,-0.081964,-0.34772,-0.43346,-0.3293,0.54707,0.58886,0.50566,0.010783,-0.35059,-0.44968,-0.21894,0.38741,-0.55234,-0.23515,-0.49681,0.31075,-0.3345,0.12044,0.19575,-0.31143,-0.23357,-0.045641,0.38023,0.092269,-0.57258,-0.18522,-0.32328,-0.10326,-0.41494,0.64058,-0.40139,0.261,0.50553,-0.16553,-0.0040408,0.12451,-0.36235,-0.615,-0.41607,0.13372,0.090906,-0.5519,-0.28698,0.48064,-0.27622,0.081047,0.34327,0.29888,-0.15374,0.7242,0.43936,0.059276,0.58019,-0.043963,0.31947,-0.05407,0.62948,-0.50089,-0.46597,0.17807,-0.35502,-0.20939,0.34609,0.053136,0.28684,0.13716,0.083282,-0.59374,0.16457,0.2035,-0.35903,0.54766,0.25531,-0.23661,0.16824,0.32338,-0.15851,0.55193,-0.21447,0.63332,0.52497,0.090645,-0.4429,0.28394
arm,0.14602,-0.62674,0.021741,-0.41299,-0.21835,0.10637,-0.29335,0.0063162,-0.22287,-1.7217,0.087246,0.10204,0.042718,-0.49161,0.084603,0.28697,-0.072682,1.0012,-0.30508,0.098683,-0.087169,-0.22421,0.27757,-0.023764,0.15999,0.37556,-0.33349,0.26635,-0.37975,0.25225,0.44228,0.42437,1.0136,0.17775,-0.53398,0.24877,0.028165,0.41862,-0.43905,0.81134,-0.24994,-0.14059,-0.087654,-0.096733,0.33732,-0.045405,-0.37896,-0.49869,0.55231,0.14153,-0.30763,-0.29291,-0.20658,0.34719,-0.34949,-0.40771,-0.18708,0.31681,-0.35261,0.55868,0.13934,-0.57007,-0.28257,0.34556,0.10671,0.24842,-0.090055,-0.49853,0.22597,0.078897,0.35973,0.40659,0.20405,0.41757,-0.0022474,-0.20793,0.32739,-0.31244,-0.065271,0.31903,0.30797,-0.13961,-0.12529,0.059226,-0.077858,-0.099986,0.14902,0.34336,-0.4712,0.24977,0.17361,0.24458,-0.44962,0.094444,-0.43141,-0.60031,-0.36056,-0.45074,0.67067,-0.040263,-0.18363,-0.18766,-0.47665,-0.43605,0.60459,0.11699,-0.17808,0.052105,-0.092142,0.1426,-0.29421,-0.12176,-0.60796,0.044327,-0.0086145,-0.28759,-0.9493,-0.0058008,0.05867,-0.24494,-0.0362,-0.13931,0.52823,0.0034451,-0.31028,0.028512,-0.039339,-0.49235,0.10889,-0.16727,0.50692,-0.27726,-0.15084,-0.1115,-0.66372,0.24464,0.58131,-0.51377,0.060909,-0.022465,0.045922,0.34727,0.41578,-0.13635,-0.39087,0.47604,-0.18108,0.15821,0.21363,0.17194,0.20751,0.021842,0.20238,-0.38404,0.48155,0.19051,-0.10179,-0.17206,-0.14799,0.009068,0.33178,0.40655,-0.33891,-0.12417,0.33978,0.17446,0.32777,0.030526,0.3743,0.4599,-0.52692,-0.4773,-0.25616,0.043455,0.067095,-0.061918,0.0096984,0.069351,-0.35685,-0.063516,0.56203,-0.36011,0.46024,0.054326,0.16436,-0.28066,0.23852,0.079251,0.078107,-0.40204,-0.16128,0.51795,-0.43463,0.45117,-0.26367,0.42599,-0.039693,-0.4226,0.25945,0.0063898,1.8284,0.0067537,0.11512,0.32359,-0.3392,0.2474,-0.67721,0.61947,0.10212,0.1214,0.51384,0.17513,0.26064,0.033587,0.16103,-0.051169,0.144,-0.036203,-0.46973,0.24217,-0.49877,0.1427,-0.24989,-0.26716,0.05011,0.40705,-0.01913,-1.0447,-0.44436,-0.23985,0.28867,-0.46219,0.12066,0.26397,0.0093797,-0.28566,-0.19882,-0.30979,-0.35149,-0.44069,0.7061,-0.063567,-0.038846,-0.67786,-0.3285,-0.043197,0.17067,-0.077164,-0.7018,-0.19692,0.33516,0.37771,0.1719,-0.90793,0.60317,-0.077088,-0.95783,-0.46642,-0.078205,0.081417,0.37685,-0.025444,-0.41467,0.62639,-0.35517,0.31778,-0.2118,0.009443,-0.89263,0.56223,-0.48243,-0.87392,0.23191,-0.0082561,0.015988,-0.40157,-0.89173,0.15329,-0.19709,-0.0023599,-0.24162,0.18028,0.67724,-0.16424,-0.13074,0.11906,0.16337,-0.21818,0.44905,-0.31754,0.39528,0.28598,-0.068885,-0.20372,-0.35582,0.6248,0.060736,0.18661,0.011764,-0.23978
barn,0.14304,-0.019271,-0.5825,-0.20617,0.16125,0.049876,-0.31965,-0.017264,-0.77615,0.2129,-0.43759,-0.5656,0.55067,0.33841,-0.74215,0.39226,-0.47563,-0.27862,-0.31173,0.32806,0.81145,0.42672,0.65097,0.68616,-0.45786,-0.55759,-0.00054875,-0.54445,-0.10235,0.53877,0.007112,0.054512,-0.3613,0.15941,0.044133,0.96827,-0.33266,-0.02047,-0.19374,-0.46852,0.046963,-0.031841,-0.55749,-0.22123,-0.32212,-0.056262,0.46342,-0.24287,0.080689,-0.5878,-0.056573,0.070521,0.27835,-0.36534,0.26995,-0.24409,-0.31582,-0.32909,-0.0625,-0.31805,0.67131,-0.037014,0.69895,0.20732,-0.39807,-0.29598,0.18586,-0.48733,0.17573,-0.91479,0.063293,0.31039,-0.073119,-0.36097,-0.39344,-0.5784,-0.31694,-0.70411,0.28196,-0.76456,-0.73634,0.36994,-0.45285,-0.22903,0.1925,-0.28502,0.024253,0.24168,-0.086585,0.24808,0.73092,-0.23204,-0.034115,0.39084,0.024993,-0.90456,0.1891,-0.20395,-0.43326,-0.25345,-0.64286,0.63067,0.086424,0.064513,-0.14589,0.10616,-0.23509,0.0070066,-0.13702,0.44984,-0.82446,-0.28189,-0.74667,0.81155,-0.30628,0.065994,-0.55027,0.21459,0.41676,-0.028687,0.08561,-0.22314,0.72784,0.183,0.30409,0.081072,0.057034,0.10536,-0.45402,0.076597,0.63381,0.25719,0.23532,-0.039917,0.3618,0.026754,-0.062799,-0.00045326,-0.55081,0.14838,-0.22523,-0.055023,-0.023827,-0.3082,0.13187,-0.082499,0.14783,-0.014265,0.014321,0.021199,-1.0057,1.1083,-0.17229,-0.49229,-0.27782,0.538,0.11047,0.10331,-0.25273,0.48308,0.30905,-0.064181,-0.29991,-0.15498,0.089892,0.68013,0.14625,-0.17045,0.57081,0.065851,0.45508,0.70623,0.78948,0.43234,-0.16337,0.026286,-0.00065765,-0.012712,0.50592,-0.53778,-0.29448,0.3168,0.12869,-0.44665,-0.20905,0.031393,0.42983,0.26575,0.70701,0.58327,0.31278,-0.021968,-0.40554,-0.29507,-0.40672,0.33696,-0.027701,-0.48643,0.26776,-0.10505,0.55865,-0.1381,-0.31969,-0.28476,0.5224,-0.18099,0.038912,-0.28794,-0.28467,0.10676,0.12207,-0.43794,-0.62352,-0.0041129,0.091822,-0.19839,-0.34119,-0.0018062,0.19218,-0.018577,0.46191,-0.56574,-0.004146,-0.4107,-0.25954,0.081833,-0.24129,0.19125,0.22342,0.61528,-0.047725,-0.30482,-0.35098,0.26899,0.49581,0.54264,0.20694,-0.16547,-0.74023,0.54891,-0.24651,0.31952,-0.60501,-0.27891,0.023294,-0.48141,0.12826,-0.077498,0.17345,0.018118,-0.3533,0.043045,-0.66413,-0.45739,0.67252,0.069848,0.017675,0.056708,0.66403,-0.43798,0.0071443,0.57253,-0.0048531,-0.11213,-0.39401,-0.5622,0.42371,-0.056286,0.052733,-0.17717,-0.38722,-0.19915,0.80805,0.054003,0.47228,-0.59006,-1.0674,0.56963,-0.21508,0.44057,-0.63526,-0.052596,-0.30076,-0.42583,-0.11466,0.52839,-0.27218,0.32805,0.22825,-0.39056,-0.2996,0.058262,-0.30572,0.12117,-0.013137,-0.10089,0.2888,-0.2996,0.53413,0.76344
bear,0.086177,0.054755,-0.44714,-0.022551,0.31183,0.032818,-0.1387,0.96572,0.4888,-0.75099,-0.093661,-0.1336,-0.26967,0.55778,0.37184,-0.064235,-0.12886,-0.56015,-0.064247,-0.04161,0.25533,-0.21695,0.55944,0.48287,-0.19714,0.071537,0.03649,-0.33761,0.16172,-0.018566,-0.0043925,0.056882,0.0011434,-0.63518,-0.63945,-0.37049,-0.057871,0.29946,-0.21265,-0.14464,-0.62084,-0.59919,0.14505,-0.056854,-0.65216,0.23424,-0.16002,-0.13723,0.42255,0.029473,0.40331,-0.43748,0.015834,-0.20973,0.20679,0.7093,0.19593,0.52424,0.29056,0.0074849,0.10345,-0.16943,0.25786,-0.26626,-0.19976,-0.11185,-0.56724,-0.42329,-0.3765,-0.23901,-0.29483,0.37444,-0.52309,-0.15593,-0.11413,0.019484,0.26711,0.057639,0.31101,-0.37802,0.31136,0.07225,-0.020555,-0.43391,0.75394,0.012868,0.050244,0.24589,-0.15259,0.015661,-0.10038,-0.39596,-0.37438,0.1895,-0.41529,0.3433,0.00052799,-0.32638,-0.36392,0.29913,0.34003,0.39086,-0.043513,0.11121,-0.11696,0.4289,0.1319,-0.016068,0.69789,0.51215,-0.43074,0.43994,-0.40824,0.045821,0.33181,0.15766,-0.24087,0.24838,0.28098,-0.041602,-0.33382,-0.44646,0.22765,0.42093,0.02171,-0.072948,-0.45207,0.14919,-0.049597,-0.80394,-0.10511,0.13964,0.17542,0.40328,-0.18582,0.17392,-0.16662,0.42739,0.18718,-0.34434,0.42817,-0.13119,0.14407,0.33895,0.12115,-0.093308,0.20792,0.31744,0.1549,0.39081,-0.25048,0.93391,-0.18456,-0.60641,0.68932,0.18998,0.3024,-0.42275,-0.56295,0.87063,0.63141,0.35814,0.45692,-0.19333,-0.5555,0.33449,0.70025,0.55328,-0.2277,-0.42977,-0.029074,-0.21067,-0.040413,0.19193,0.13761,-0.48582,0.31657,-0.15511,-0.095555,-0.1836,0.46821,-0.27362,-0.17751,-0.15138,-0.056687,-0.055984,-0.043698,-0.36201,0.18331,0.043327,0.38919,-0.4632,-0.28213,-0.12515,-0.53886,-0.41216,0.45824,-0.091527,0.11683,0.2362,1.3584,-0.4163,0.40883,-0.34517,0.050401,0.25273,-0.41,0.69973,-0.0296,-0.041195,0.11202,-0.49028,0.010992,-0.48199,0.43843,-0.51231,0.39979,0.60083,-0.40575,-0.045183,-0.24098,0.41361,-0.14578,-0.20145,-0.084186,-0.2331,0.30997,0.066423,0.30231,-0.12041,-0.51375,-0.2107,-0.40638,-0.23156,-0.40672,0.4184,-0.32911,-0.83878,0.10276,0.29788,-0.24293,0.61889,0.54026,-0.12752,-1.1992,-0.29751,-0.21392,-0.53084,-0.33414,-0.26834,-0.051812,0.34437,-0.40659,0.04144,0.64159,0.2142,-0.36101,-0.035513,-0.078942,-0.048973,0.010626,0.092643,0.042826,0.036211,-0.4253,0.25897,0.42135,-0.0092855,0.044883,0.33648,-0.46076,0.24866,-0.096073,0.26531,-0.0072007,-0.6796,-1.3896,-0.27316,0.034969,-0.20169,-0.1349,0.24364,-0.080494,-0.24458,-0.59143,0.13549,0.054295,0.058038,0.72197,-0.62493,-0.23878,-0.14983,0.29795,-0.5429,-0.2496,-0.019161,0.229,0.53021,0.35338,-0.074899
bed,-0.20441,-0.082417,-0.056366,-0.17798,-0.33011,0.22672,0.29838,-0.19279,0.30875,-0.83188,-0.23715,-0.019056,-0.05655,0.40601,-0.088462,0.13436,0.17642,-0.26913,0.26743,0.0013045,-0.17153,0.14414,-0.45097,0.23472,-0.01161,-0.21644,0.29732,-0.11061,0.32046,-0.044161,-0.20623,0.4507,0.030282,-0.24265,-0.38689,0.43395,-0.50332,0.012602,-0.25647,-0.12819,-0.28424,-0.36896,0.19886,-0.20929,0.2832,0.14226,0.84719,-0.065723,0.16936,-0.067254,0.34013,0.14643,-0.10263,-0.061908,-0.31589,-0.15444,0.31813,-0.30563,-0.042976,0.30693,1.0147,-0.054988,0.33041,0.49589,-0.32104,-0.60152,-0.16177,-0.20192,-0.78095,0.524,-0.17222,0.062206,-0.69885,-0.13636,-0.033465,-0.20192,0.20644,-0.30579,0.08963,-0.27777,-0.17064,-0.22823,-0.076898,0.14335,-0.0018081,0.39695,-0.11852,-0.087846,-0.39646,0.028137,0.71535,0.4504,-0.27695,0.49229,-0.22587,0.0175,0.213,0.0024181,0.57229,-0.37186,0.11366,-0.023166,-0.21359,-0.0068227,0.082164,0.52396,0.70948,0.14341,-0.22588,-0.27252,-0.22364,0.041681,-0.41411,-0.44792,-0.12249,0.30971,-0.11554,-0.065807,0.24319,-0.34266,-0.34077,-0.18612,0.031894,0.1824,-0.10614,0.10779,-0.20198,0.0039624,-0.34138,0.18654,0.9514,-0.086021,0.18654,0.20607,-0.26246,-0.28321,-0.27812,0.11389,-0.66292,0.046997,0.1876,-0.29742,0.20945,0.21125,-0.96606,0.078958,-0.046497,0.17539,0.026295,-0.19446,0.077567,0.75708,-0.15892,0.32255,0.24556,0.1022,0.15842,0.10227,0.497,0.21543,0.42346,-0.47693,0.085513,0.23091,0.46833,0.49582,0.21895,0.17707,0.0099555,0.27899,-0.5443,0.78735,0.65066,-0.00059914,-0.69341,-0.21176,-0.2596,0.47523,-0.14068,-0.81551,0.058556,-0.25762,0.40318,-0.15714,0.10363,0.12526,0.35582,0.65428,0.6251,0.23995,0.5432,0.92605,-0.3816,-0.50507,-0.3199,0.35812,-0.26064,0.032249,-0.27478,0.03419,0.61503,-0.26811,0.012246,0.0027715,0.39224,-0.45584,-0.093542,-0.5964,-0.41432,-0.29589,-0.42946,-0.49058,0.44673,-0.24123,0.5226,0.2642,0.053704,-0.41188,-0.11574,-0.059676,0.48033,0.20761,0.2092,0.45453,-0.19549,0.23308,-0.26016,-0.50384,-0.069664,-0.16674,0.52601,-0.38847,0.046023,-0.5001,1.0733,-0.47006,-0.42299,0.27519,-0.43659,-0.44483,0.036219,0.080173,-0.50382,0.46914,-0.67205,-0.18639,0.21913,0.085951,-0.63234,-0.077438,-0.407,0.71969,0.56099,-0.5419,0.723,0.29343,0.38554,0.10165,0.28322,0.0064789,-0.11846,-0.313,0.09041,-0.058312,-0.48567,-0.30149,0.75886,-0.27481,-0.23522,0.38376,-0.21882,-0.75113,-0.42509,-0.079655,0.25668,0.056252,-1.5539,0.24891,-0.69593,0.010845,-0.37691,-0.18424,-0.2984,-0.34224,-0.050046,0.36633,0.064514,0.25401,-0.31907,-0.58837,-0.02952,-0.092347,-0.05096,-0.34635,-0.10296,-0.31531,0.72788,0.21168,0.047181,1.0278
bee,-0.26607,0.3776,-0.37297,0.39632,-0.25198,0.23823,-0.51209,0.11211,-0.23773,-0.37428,-0.21506,-0.37493,-0.5023,0.12763,0.66347,0.31148,0.097449,-0.046298,-0.21342,-0.0098251,0.47481,-0.25973,-0.073478,0.1844,0.075455,-0.062966,0.26432,-0.57984,-0.23107,0.21037,-0.063662,-0.14472,0.094807,0.023767,-0.44796,0.12828,0.26972,-0.070229,0.31668,-0.40475,-0.056774,0.07043,0.7456,0.26541,0.0027807,-0.13609,1.0039,-0.13536,0.11548,-0.28822,0.51668,0.041236,0.1598,0.19944,0.046439,0.16194,0.11778,-0.25286,0.31291,-0.31275,0.38737,0.063415,-0.15682,0.43968,-0.024797,-0.2854,0.0098685,0.73803,-0.15455,0.64833,-0.20055,0.38835,-0.35942,0.77909,-0.19399,-0.14242,0.19908,-0.17022,0.32579,0.069043,0.043443,-0.065667,-0.14511,-0.63334,-0.24173,-0.60801,0.79222,0.3293,-0.083806,-0.17304,-0.2161,0.40626,0.28471,-0.36579,0.54183,0.82396,-0.1386,0.2207,-1.1346,-0.27535,0.48256,0.3951,0.46202,0.01433,0.44202,0.5119,-0.2471,-0.45378,0.60677,0.73485,0.24519,0.58714,-0.16256,0.28133,0.50748,0.04858,-0.50343,0.29946,0.15827,-0.57623,-0.22915,0.14257,0.47336,0.082119,-0.35748,0.25803,-0.17411,0.26486,0.41482,0.24794,0.018071,-0.83274,0.28878,0.80838,0.0089202,0.04308,-0.36419,0.30611,-0.37256,0.26607,0.14095,-0.17304,-0.16555,-0.96376,0.62513,-0.042336,0.60229,0.59044,-0.16869,-0.14139,0.44721,-0.027164,0.18082,0.53584,0.029029,-0.61316,0.081919,0.49692,-0.22852,-0.31796,0.25085,0.30988,0.14,0.70781,-0.51576,0.45491,-0.21083,-0.11888,-0.46364,0.44421,-0.12584,0.68121,0.14559,-0.3098,0.27984,0.43562,0.094599,0.013148,0.66309,0.14266,0.41878,-0.6972,-0.89929,0.18981,-0.88519,-0.21505,0.82612,-0.019075,0.24058,-0.46339,0.054448,0.54431,-0.20949,-0.58443,-0.284,0.45387,0.624,-0.52498,-0.10185,-0.15322,0.72829,0.26487,-0.78573,-0.55756,0.16281,-0.059319,-0.97344,-0.39,1.1144,0.21973,-0.20238,-0.48492,0.30114,-0.051838,0.35524,0.16588,-0.20831,0.62509,0.78385,-0.28395,0.050937,-0.094872,-0.60582,0.96501,-0.13112,0.33989,0.20663,0.30488,0.066848,-0.17964,0.38561,0.14942,0.1409,-0.077108,0.3929,0.6695,0.51302,-0.52391,0.13876,-0.1803,0.040609,-0.0020153,-0.49575,0.86265,-1.0458,0.29279,-0.083324,0.12205,0.35002,-0.20719,0.20739,0.56732,0.10219,0.27285,0.98154,-0.65213,1.1916,-0.81439,0.00098854,-0.80588,-0.47273,0.28966,0.14759,-0.12248,0.13859,0.35534,0.29032,-0.85889,-0.15329,0.15683,-0.53241,0.11347,0.11751,0.050287,0.43739,-0.18908,0.2231,0.32318,-1.0573,-0.18291,-0.52374,0.31093,-0.26702,0.44724,-0.49211,0.45807,0.15022,-0.17001,0.25377,-0.098446,1.0472,-0.46087,0.22306,0.59727,0.18822,-0.052261,0.26815,0.12029,-0.053737,0.58141
beetle,0.055605,0.69771,0.14951,0.1448,0.41309,0.59913,-0.22491,0.19615,0.155,-0.52016,0.6033,0.1117,-0.13931,-0.44702,0.35742,0.32619,0.014369,-0.088097,-0.035275,-0.80242,0.23614,1.0395,0.67318,-0.1522,-0.098246,-0.33794,-0.16806,-0.0050063,-0.16593,-0.022026,0.25654,-0.23059,-0.34527,-0.11883,0.97095,0.25546,0.029418,0.29481,-0.64803,0.23109,0.24363,0.79242,0.6251,-0.16188,0.98153,-0.63553,0.91124,-0.12007,-0.72096,-0.93087,0.13051,-0.28526,-0.24306,-0.21364,-0.18769,0.5116,-0.086216,-0.24435,0.47194,-0.19111,-0.4488,-0.26509,0.43098,0.22931,-0.29317,0.063507,-1.0276,0.21471,0.32573,-0.24909,-0.29617,0.41687,-0.7792,0.60252,-0.52252,0.41175,0.018638,-0.1683,0.043617,0.45975,-0.35647,0.50504,-0.71934,-0.35885,-0.059501,0.13118,-0.37433,-0.62712,0.034683,-0.4592,0.27943,-0.19078,0.67032,-0.34198,0.30544,-0.71571,-0.046155,-0.1296,0.39094,0.66812,-0.084184,0.89698,-0.10608,0.10448,-0.76897,-0.29605,0.3967,-0.1626,0.33337,-0.11979,0.19702,0.69993,-0.61222,-0.61015,0.3878,-0.43152,-0.19614,0.14535,-0.067125,-0.33886,-0.13164,-1.3971,-0.15411,-0.13218,-0.85622,0.6352,0.38322,1.0658,0.37442,0.0018975,0.21755,0.36392,-0.46225,0.28264,0.49852,-0.57392,-0.31087,0.17029,-0.79008,0.65437,0.11974,-0.097036,-0.16708,-0.59073,0.57375,-0.5743,0.38474,-0.16276,-0.056382,0.42891,0.025174,0.28282,-0.43627,-0.042787,-0.3471,0.1264,0.12342,-0.40954,-0.067552,-0.022672,-0.3133,-0.64631,-0.18506,-0.20577,0.45239,0.072755,-0.4052,0.65662,0.19634,-0.97308,0.51181,-0.18709,0.26745,0.74563,-0.74994,0.18365,0.49476,0.18493,0.99313,-0.56772,0.010533,0.32625,0.12298,-0.15895,0.26348,-0.56956,0.25311,0.055928,1.1343,-0.13247,0.053396,0.21373,-0.32121,-0.40682,-0.15017,0.12326,0.53805,-0.31627,-0.16968,-0.060177,0.39452,0.37447,-0.61429,0.07478,0.18045,0.27276,0.12136,-0.54546,-0.10825,0.4586,-0.40089,-0.9126,0.41768,-0.56264,0.49075,-0.044442,-0.51676,0.067279,0.327,0.40026,-0.55599,-0.41634,-0.48956,-0.042584,-0.018462,0.82762,0.25846,0.39994,-0.0045935,-0.46434,-0.40791,-0.5479,0.1274,1.1946,0.21523,0.20045,0.15355,0.11654,-0.4188,-0.088084,-0.27541,-0.41313,-0.8571,0.29232,-1.1392,-0.27051,0.27349,-0.10098,0.055447,-0.409,-0.1756,0.17933,-0.93785,0.42855,0.67332,-0.10205,0.54548,0.53209,0.72268,-0.66143,-0.344,0.10032,0.72376,-0.017922,-0.79734,0.072632,-0.3741,-0.17819,-0.16331,0.8733,0.11678,-0.022552,-0.80143,-0.018431,-0.086496,0.21311,-0.058626,-0.35655,-0.016748,-0.019521,-0.73977,0.28233,0.59292,-0.081559,-0.7966,-0.25523,0.10608,-0.35779,-0.15608,-0.80689,-0.055855,-0.42592,0.10882,0.26771,0.36629,-0.30444,0.13955,0.5092,0.89346,0.31801
bell,0.034496,-0.23843,-0.21377,-0.82725,-0.30731,0.019571,-0.14299,-0.042846,-0.45885,-0.52318,0.44457,0.33159,0.087975,0.26565,-0.029818,0.20112,-0.49238,-0.34886,-0.41054,0.21685,0.37899,0.0956,0.31112,-0.1728,0.4399,-0.46052,0.1638,-0.14146,-0.54185,-0.47436,-0.0035773,-0.22184,-0.21923,0.22382,-1.2397,0.27693,0.28512,-0.13591,0.11639,0.050544,-0.27991,0.32481,0.1514,1.059,0.14418,0.13151,-0.24241,-0.40417,-0.18483,-0.47764,0.4171,-0.20374,-0.21739,-0.14117,-0.33828,-0.35739,0.21325,0.49931,0.21837,-0.4715,0.72324,-0.15561,0.41628,0.29425,0.27348,-0.49643,-0.1742,0.26984,0.28911,-0.090014,0.16722,-0.077198,0.48449,0.37797,-0.41063,0.70229,0.46461,0.30129,-0.078701,-0.057426,0.052541,0.44819,-0.29408,0.29028,0.062327,0.24988,0.80831,0.55488,0.29961,-0.1483,1.0771,0.15545,-0.073337,0.30405,-0.1277,0.2602,0.12968,0.34997,0.048012,0.15897,-0.17369,0.19841,0.27942,0.092835,-0.43857,-0.053731,0.52984,0.31937,-0.62062,0.2597,-0.12344,-0.42957,0.046133,0.23259,0.39948,-0.58463,-1.0485,0.43764,-0.1556,0.191,-0.22355,-0.24468,0.28399,-0.79491,-0.19419,-0.47242,0.39279,-0.048978,-0.34339,0.28093,0.011113,0.639,-0.17184,0.25608,-0.085162,-0.11555,0.064589,-0.0047543,0.14075,-0.10725,0.034852,0.17156,0.14634,-0.18743,-0.87964,-0.33072,-0.21265,0.19968,0.59408,-0.40258,0.21989,0.20879,0.32735,-0.57723,0.022943,-0.29549,-0.41643,0.059771,-0.89057,0.11678,0.35817,0.11546,0.40129,-0.55057,-0.36337,0.59434,-0.39495,0.11323,0.37485,0.051635,-0.31371,-0.013232,0.22498,0.25129,0.32538,0.648,-0.2782,-0.033287,-0.32171,-0.0073906,0.29813,0.97325,0.44827,-0.39826,-0.13573,-0.20386,-1.1851,0.43344,-0.11442,0.1053,0.43132,0.30355,-0.22741,0.24255,0.056428,0.30867,-0.24946,-0.06748,-0.22902,-0.48053,0.90097,-0.22312,0.9156,-0.37472,-0.46892,0.57165,0.19573,0.17394,0.30786,-0.024932,0.56164,0.08827,-0.35072,-0.67142,-0.38384,-0.083132,-0.18278,0.28799,0.22399,0.15431,-0.38547,0.41735,0.0942,-0.30674,0.39767,0.29461,0.051676,-0.70033,-0.063304,-0.17003,-0.077374,0.42725,-0.77477,0.18092,-0.2938,0.23937,0.3098,0.051702,-0.4918,-0.21065,0.039858,0.0020697,0.23223,-0.25269,-0.50108,-0.27373,-0.16156,-0.51762,0.45695,-0.058081,0.31074,0.43065,-0.12277,-0.13036,0.072671,0.57492,0.026074,0.26972,-0.09089,0.37497,-0.19897,-0.38294,-0.19053,0.43184,-0.056553,0.15768,0.033716,0.64457,-0.33845,-0.10432,-0.022623,0.23755,0.13592,-0.3353,0.18007,0.071115,-1.1694,-0.31982,-0.75254,-0.27352,0.032339,-0.025747,-0.21093,-0.41456,-0.53744,-0.26937,-0.19595,0.041934,-0.56084,-0.041968,0.42392,0.20221,0.37343,0.0052502,-0.21326,-0.062723,0.26267,-0.3245,0.30382,0.17159
bicycle,0.19735,-0.3669,-0.12089,-0.36414,-0.057167,0.42635,-0.39962,0.057128,-0.45056,-0.29852,0.37528,0.12445,0.20021,0.25374,0.42303,0.22227,0.14884,-0.2402,-0.12901,0.088614,0.20329,0.38298,0.25772,0.38597,-0.1446,-0.49084,-0.32758,-0.0639,-0.011543,0.25979,0.17905,0.060617,0.71454,0.26481,-0.27168,0.6452,-0.93533,-0.42932,0.12331,0.34576,-0.73043,0.26467,-0.23992,-0.50068,-0.25537,-0.0088307,1.013,0.18111,0.096268,0.075308,-0.1211,-0.19643,0.64804,0.50834,0.51374,0.47387,-0.29312,0.015719,-0.47909,0.13365,0.0057781,0.25716,-0.16936,-0.54828,-0.12515,0.1105,-0.38971,0.12949,-0.3879,-0.14473,-0.085143,0.21914,0.71696,0.18549,-0.1578,0.31191,0.12833,-0.36976,-0.032804,-0.15259,0.3846,0.77427,0.4072,0.30056,-0.55618,-0.3795,0.30336,0.71349,-0.24811,1.0618,1.23,-0.26735,0.69546,-0.024818,0.2454,-0.14011,0.40993,-0.25691,-0.063857,-0.25101,-0.48254,0.95237,0.15496,-0.32916,0.24024,-0.34235,0.58227,-0.33666,0.3709,-0.19746,-0.5031,-0.028491,0.30762,-0.19617,0.40772,0.37987,0.59448,0.018824,0.12928,0.89838,-0.036565,0.38578,0.83541,-0.65532,-0.30836,0.092505,0.04313,0.25576,-0.30225,0.15686,0.27962,-0.18849,0.30497,0.62619,0.24941,0.073455,0.25243,-0.23227,0.43569,-0.14853,0.095151,0.16533,0.4193,-0.40209,-0.16955,0.13626,0.11354,-0.031374,-0.16541,0.057904,0.31952,0.47641,-0.47721,-0.33085,0.054494,-0.57611,0.019342,0.15444,-0.21438,0.1748,0.40081,-0.85769,-0.3969,-0.41082,0.62365,-0.25631,0.61811,0.29302,0.25068,0.20252,-0.21803,0.17028,-0.37609,0.46854,0.069039,-0.92643,-0.02377,-0.0187,-0.26913,0.12852,0.23012,-0.37406,-0.14155,0.69611,0.85349,0.050875,0.4795,0.73069,0.62531,-0.25608,0.060996,-0.10665,0.044272,-0.2178,-0.47679,0.029376,-0.54187,-0.32888,-0.17094,0.28674,0.21444,0.57451,0.81124,-0.052739,0.24551,0.67904,-0.186,-0.14566,-0.35077,0.51168,-0.27376,0.04777,-0.19747,0.07942,-0.24218,-0.059315,-0.73836,0.015436,-0.070877,0.026695,0.1399,-0.15289,0.08125,-0.46123,0.88573,-0.076802,0.075244,-0.26868,0.0297,-0.022384,0.10536,-0.23323,-0.049806,-0.61519,0.62787,0.44382,-0.10292,0.36704,-0.071454,0.144,0.35692,-0.36891,-0.0073854,-0.18818,0.10229,-0.16894,-0.15904,-0.21169,0.054647,0.11847,-0.020771,-0.32663,0.16205,-0.69754,0.76183,-0.18239,-0.1462,0.1966,0.19192,-0.15233,-0.42784,-0.56037,0.3314,0.81589,0.16945,-0.27771,-0.3913,-0.021842,-0.011513,-0.37713,-0.15933,0.63254,-0.24384,-0.028433,0.22469,-0.58254,-1.4884,-0.4435,-0.20047,0.12063,0.27412,-0.84742,0.33885,0.17955,-0.47187,0.60922,0.26474,0.092047,-0.034032,-0.3891,0.32129,-0.079616,-0.92775,0.39254,0.063662,0.29555,-0.34261,0.36519,0.33658,-0.33163
bottle,-0.36103,0.53612,-0.31926,-0.49466,0.22531,0.68284,-0.154,-0.4189,0.64487,-0.64345,-0.10404,-0.46821,-0.22309,-0.24517,0.052643,0.25325,-0.47008,0.33953,-0.27983,0.070647,0.21413,0.23985,-0.19891,0.37673,-0.24772,-0.6149,-0.63005,0.25413,0.0051111,-0.76437,-0.49298,-0.15191,-0.010272,0.28237,-0.62851,0.54018,-0.1591,0.29896,-0.083272,0.080493,-0.25582,-0.38129,0.15281,-0.12251,-0.68126,-0.096922,0.12655,0.078668,-0.15645,0.28225,-0.011875,-0.499,-0.32754,0.18251,-0.29955,0.57332,0.076515,0.32552,0.65188,-0.23338,0.0099605,-0.33375,0.30219,0.21858,-0.42436,-0.75695,-1.0581,-0.36343,0.18339,-0.13694,-0.076691,-0.46602,-0.046083,0.5621,0.19505,-0.64329,0.18193,-0.74809,-0.41208,0.056588,-0.56775,0.29277,0.24487,0.4463,0.54706,-0.25066,0.31051,-0.0016617,0.15568,-0.61664,0.81377,0.34424,0.040348,0.11687,0.53778,0.31926,0.40826,-0.08445,0.030563,-0.24794,0.12944,0.35352,0.1409,-0.16103,0.21254,-0.28031,0.20638,-0.02776,-0.62475,0.23152,-0.16342,0.37353,0.33647,-0.351,-0.037003,-0.078624,-0.69392,0.57626,0.20521,-0.81656,-0.13915,0.22415,0.035727,0.22355,-0.38353,-0.18083,-0.016795,0.02687,0.016743,0.17337,0.77108,0.082911,0.12253,0.24824,-0.22758,0.31216,-0.0070531,0.25646,-0.15528,-0.34576,0.3568,-0.22773,-0.47186,-0.52048,-0.4726,-0.41084,-0.09059,-0.048658,0.49495,0.64618,-0.055712,0.45085,0.17494,-0.85778,-0.20827,-0.034276,-0.0060999,-0.85292,0.068274,0.3135,0.23275,-0.29101,-0.20578,0.30344,0.38463,-0.16477,-0.34158,0.42603,-0.18794,-0.34695,-0.10248,0.22346,0.31126,0.074276,0.10322,-0.86673,0.0038447,0.42542,0.21068,-0.72354,-0.32956,-0.28821,-0.0014916,-0.067204,0.8096,-0.0097658,1.2654,0.41821,0.31214,-0.069382,0.9092,0.48054,-0.36435,0.16344,-0.48364,-0.17747,-0.69503,0.2334,-0.59179,0.47012,0.5046,0.72746,0.59254,0.18514,0.045497,-0.23049,-0.36411,0.056913,-0.42529,0.15928,-0.094764,0.094336,0.081473,0.017621,0.22745,-0.49078,0.18234,-0.3462,-0.50694,0.11336,-0.062241,0.69641,-0.026528,0.41998,-0.37594,0.15158,0.04094,-0.61614,0.58859,-0.36031,0.15359,0.19519,-0.42327,-0.1394,0.55505,0.28485,-0.22988,-0.16977,-0.34243,0.21108,-0.66,-0.18496,-0.29023,0.023806,-0.22833,0.20572,0.55394,-0.036207,-0.52503,-0.3733,0.76914,0.0764,0.34232,-0.17794,0.024665,0.26069,-0.74388,-0.64996,0.3972,-0.24655,0.056454,0.15282,-0.33525,0.066974,-0.23477,-0.2691,-0.065796,0.05024,0.05291,0.77334,0.25033,-0.50118,0.16789,-0.37763,0.095076,0.028568,-1.3049,-0.0096202,-0.7328,-0.57503,-0.32823,0.56113,0.11687,0.027607,0.051021,0.52293,-0.11607,-0.95368,0.26827,0.49113,-0.25437,-0.053421,0.42441,0.38912,0.13725,-0.3536,0.14525,-0.25298,0.14108,0.21762
butterfly,0.38206,0.28291,-0.16425,-0.41025,-0.036198,0.2561,-0.17346,0.44555,0.28482,0.22961,0.45022,0.38619,-1.036,-0.15872,0.27735,-0.13379,0.018991,-0.044148,-0.57997,0.60662,0.3535,0.48594,-0.21152,-0.13051,0.84109,0.45399,-0.2258,0.018171,-0.60151,0.31013,0.48904,0.063861,0.15114,0.072902,-0.60616,-0.042345,-0.25801,-0.96704,-0.94362,0.32412,-0.019795,0.1193,-0.093857,-0.064704,-0.089283,-0.22904,-0.028878,0.52369,0.0075393,-0.42536,0.33206,-0.11168,0.41049,0.14593,-0.39114,-0.26209,-0.77963,-0.0052287,1.0114,0.07737,0.21247,-0.25528,-0.016981,0.2134,0.4666,-0.38941,-0.25249,0.89165,0.16283,-0.21156,-0.64726,-0.0019446,0.23699,0.19061,-0.89272,0.59638,0.12045,-0.69148,-0.014404,0.35812,0.020518,0.20315,-0.54784,-1.0264,0.43371,0.28457,0.59365,-0.2977,-0.11219,-0.49135,0.42091,-0.50394,0.35931,-0.45522,0.95794,-0.14797,0.33481,0.15395,-0.68716,-0.084303,-0.073614,0.12287,0.44921,0.13299,-0.060814,-0.199,0.03857,0.010714,-0.14397,1.1516,-0.61513,0.41608,0.17461,-0.09961,0.6523,-0.19527,-0.64763,1.0851,-0.042648,-0.19335,-0.57249,0.15776,-0.12001,-0.43023,-0.063408,0.67756,0.095877,0.027742,-0.24717,0.28498,-0.43952,-0.38527,-0.00065839,0.24318,0.023278,-0.26473,-0.4345,0.071856,-0.1691,0.13771,-1.036,-0.0088062,-0.09758,-0.82729,-0.69525,-0.48847,0.49963,0.15327,0.21927,-0.0095822,0.068654,-0.019934,-0.28181,-0.8188,-0.29346,-0.10126,-0.37956,0.15494,0.053435,-0.25041,-0.35679,-0.83808,0.07104,-0.24437,-0.23983,0.86144,-0.042971,0.33031,0.16777,-0.23403,-0.078468,-0.20059,-0.02488,-0.18312,0.083886,-0.63065,0.82101,0.55505,0.27897,-0.13168,0.47041,-0.17962,0.54639,-0.48268,0.63601,-0.056492,0.39949,0.72911,0.51476,-0.34599,-0.065414,0.38859,-0.496,-0.21756,-0.079474,0.50205,0.4206,-0.15684,-0.35913,-0.29192,0.75736,0.25023,-0.877,-0.54636,-0.35953,-0.19088,-0.62845,-1.0169,-0.24157,0.66619,0.38941,-0.53056,0.48333,-0.64776,0.57957,0.18576,0.083771,-0.64489,0.63995,0.25698,-0.36393,-0.68184,0.088988,-0.029081,-0.099,-0.089863,0.038821,-0.15954,-0.56387,0.065915,0.23511,0.1998,0.35873,0.69945,0.023881,0.87265,-0.69455,0.27999,0.57763,-0.11497,0.039756,0.19696,-0.63054,0.77212,-0.6594,-0.24035,0.41114,0.030791,-0.30136,-0.099362,0.046741,0.042352,-0.31406,-0.036684,0.57737,-0.41,0.7696,0.25174,0.71061,-0.21851,-0.083894,-0.1755,-0.4985,-0.16108,-0.74262,0.6125,-0.70318,0.59777,-0.016429,0.53473,0.098609,-0.50058,0.030813,0.89782,-0.24093,-0.86416,-0.58099,-0.66754,-0.29606,-0.17136,-0.26993,-0.29119,-0.37365,0.17066,-1.1166,-0.26037,-0.19113,0.28943,-0.22797,-0.26272,-0.22905,0.16807,-0.25919,0.26893,0.0091598,-0.43634,-0.33324,1.0144,0.38023,0.64662
car,0.46443,0.3773,-0.21459,-0.50768,-0.24576,0.08134,0.10145,0.25155,-0.36152,-1.603,0.28219,0.36653,0.44611,0.2795,0.047722,0.30087,-0.16226,-0.026055,-0.26815,-0.46282,0.25012,0.60389,0.15111,-0.062823,-0.096755,-0.30548,-0.11376,0.53914,0.10966,-0.70618,-0.66316,0.43559,-0.048631,0.27755,-0.48685,0.11938,-0.54538,-0.29563,0.03447,0.53187,-0.001588,0.41692,-0.20742,-0.037833,0.43333,0.047521,0.83507,-0.065088,-0.29974,0.0047139,0.12339,-0.5066,0.2587,0.21264,0.19132,0.54204,-0.11385,-0.42384,-0.27808,-0.15105,-0.62104,0.27678,-0.054974,0.018479,-0.11744,0.33029,-0.35251,-0.21953,0.05514,0.16971,-0.36445,0.36383,0.20496,0.66512,-0.2254,-0.30347,-0.52782,-0.66115,0.11774,-0.14438,0.33886,0.2297,0.63072,0.76929,0.02536,-0.13685,0.084254,0.32036,-0.10431,0.7672,1.0674,0.42885,0.03032,-0.63375,0.70705,-0.17671,-0.1077,-0.31877,0.063781,-0.57507,-0.40656,0.55837,0.72376,0.2645,0.20313,-0.43949,0.53094,0.075492,-0.26951,-0.4277,-0.13859,0.28341,0.13153,-0.32371,0.22816,0.43016,-0.015529,0.13276,0.048239,-0.038536,0.013813,-0.24567,0.4658,-0.61963,-0.39568,-0.21261,0.11121,-0.19519,0.32773,-0.25276,0.87512,0.4986,0.25747,0.46459,-0.097237,0.42509,0.0080811,-0.79669,0.19793,-0.060157,0.06048,0.20092,0.46373,0.29617,-0.31812,0.12548,-0.17667,-0.29347,-0.59183,0.43081,1.0006,0.46858,0.11257,-0.56533,0.54729,-0.43424,0.22738,0.21527,0.087824,-0.073562,0.5316,-0.36782,-0.42531,-0.066561,0.34648,-0.13677,-0.26654,0.099056,-0.052121,-0.61409,-0.0036171,0.32633,0.3905,0.029416,-0.1119,-0.2118,-0.15688,-0.29308,0.23114,0.13873,0.66445,-0.26318,-0.25518,0.29499,0.70132,-0.3239,0.42109,0.27316,0.15021,0.058074,0.24201,-0.62194,-0.40832,0.038272,-0.35372,0.013934,-0.25013,0.42916,-0.039463,-0.29794,1.0178,-0.41685,0.15442,0.19598,0.44718,-0.25764,0.13438,-0.084223,-0.14142,-0.16001,-0.32541,-0.19588,0.13934,-0.44924,0.20827,-0.15747,0.035537,0.37097,-0.15336,0.20401,0.35981,-0.26311,-0.27436,-0.41229,0.45533,0.77527,0.29339,-0.27392,0.45037,0.060015,0.081354,-0.53969,0.31872,-0.082837,0.77918,0.094676,0.75256,0.33377,-0.55349,-0.15661,0.20791,-0.13498,0.4756,0.1218,-0.16496,-0.65669,0.52394,-0.43666,-0.0087235,0.52565,-0.12011,-0.21406,-0.15253,-0.22775,0.59701,-0.64509,-0.445,0.40937,0.11943,0.034467,-0.32471,-0.47915,-0.25264,0.26818,0.059601,-0.51842,0.33124,-0.29623,-0.28343,-0.41471,-0.04505,-0.0017776,-0.37654,-0.023911,0.55602,0.2044,-2.2391,0.14986,-0.098345,0.18714,-0.19265,-0.0061057,0.39897,-0.22392,-0.42168,1.0727,0.29344,-0.47384,0.30169,-0.15307,0.19966,-0.40979,-0.10325,-0.04361,0.17564,0.65709,-0.09986,0.49107,0.28215,0.34554
carrot,-0.042012,0.025498,0.82407,-0.30893,0.14721,0.38625,-0.26753,-0.46928,-0.34762,-0.22805,0.3798,0.62231,0.15397,0.1167,-0.27254,0.23271,-0.22615,0.12618,-0.24698,0.57114,0.46084,0.13286,0.56637,0.46569,-0.1486,-0.096041,-0.47197,0.065838,-0.4706,-0.2269,-0.37426,-0.25017,0.25753,-0.0048146,0.073094,0.36433,0.3819,0.25837,-0.38061,-0.36254,0.33199,0.29026,0.13503,0.23759,-0.37805,0.12458,0.13425,-0.21933,-0.23208,-0.35144,0.22699,0.178,0.21562,0.037839,-0.24626,-0.13882,-0.48542,0.14538,0.79654,-0.023186,0.52172,-0.12569,0.01291,-0.012202,0.012569,-0.11166,0.25573,0.39502,0.13775,0.22845,-0.33123,0.27173,0.032035,0.10078,-0.2528,0.40699,0.30126,-0.17494,0.29731,0.19351,-0.023354,-0.049408,0.17364,-0.043304,0.30295,-0.66442,-0.46967,-0.30717,-0.36054,-0.67929,-0.047033,-0.065428,0.42027,-0.035814,0.15394,-0.040528,0.22906,0.12229,0.073405,0.37424,0.1177,-0.43244,0.18855,-0.15814,-0.1875,0.32248,-0.27794,-0.11512,-0.67153,-0.24627,0.3745,0.5091,0.0088737,0.23506,-0.11306,0.0024098,-0.7724,0.86014,0.20723,-0.34345,0.11342,-0.23133,0.27492,0.048875,-0.87534,-0.22139,0.46963,0.5285,-0.19856,0.12172,0.29716,0.65305,-0.060692,0.40166,-0.19278,0.087006,0.47911,0.082224,-0.42294,-0.27395,0.26325,0.49682,-0.66439,-0.56266,0.15221,0.63561,-0.085366,0.0018583,-0.077202,-0.29369,-0.78866,0.01032,0.5685,0.99219,-0.47404,-0.53137,0.068331,-0.32577,-0.83872,0.8581,-0.017149,0.28328,-0.056696,-0.10644,0.23533,0.035307,-0.31539,0.17795,-0.41686,-1.0943,0.10484,-0.27331,-0.37707,-0.43186,-0.28527,-0.39584,0.043144,-0.084072,0.62455,-0.016373,-0.14011,-0.3362,0.70459,-0.28464,0.034589,-0.25545,0.58147,0.37721,0.58817,-0.6506,-0.45945,0.99827,0.081852,0.08172,0.037181,0.11231,-0.67205,0.021045,0.62784,0.14007,0.66307,0.47685,0.35262,0.86299,0.2042,0.64589,0.19718,0.073287,0.2566,0.093652,-0.45454,-0.43917,-0.22438,0.22008,0.17244,-0.0083705,0.27926,-0.25899,0.18798,-0.28041,0.29286,0.76441,-0.53596,0.19083,-0.23719,-0.29109,-0.25923,0.29005,0.24107,-0.40874,-0.4351,0.24284,-0.18546,0.41744,0.45476,0.82139,-0.33624,-0.217,-0.1217,-0.25941,0.01803,-0.038868,-0.040927,-0.035232,-0.72983,-0.24142,0.6764,0.29711,0.15519,-0.81494,0.36879,0.076987,-0.094882,-0.45303,0.07648,0.20836,-0.20662,0.69492,-0.28049,0.11869,-0.041158,-0.051296,0.39337,0.24971,-0.14363,-0.48628,-0.21271,-0.31489,-0.25147,0.38193,-0.713,-0.06473,-0.70814,0.6588,0.058875,-0.24114,-0.071742,-0.68114,-0.72648,-0.65322,-0.039002,-0.25948,-0.24095,-0.29375,0.40141,-0.19375,0.46074,0.095207,0.27494,0.36118,-0.071241,-0.31413,0.36401,0.031351,-0.093775,-0.75972,-0.055761,0.21685,0.74927,0.4827
cat,-0.29353,0.33247,-0.047372,-0.12247,0.071956,-0.23408,-0.06238,-0.0037192,-0.39462,-0.69411,0.36731,-0.12141,-0.044485,-0.15268,0.34864,0.22926,0.54361,0.25215,0.097972,-0.087305,0.87058,-0.12211,-0.079825,0.28712,-0.68563,-0.27265,0.22056,-0.75752,0.56293,0.091377,-0.71004,-0.3142,-0.56826,-0.26684,-0.60102,0.26959,-0.17992,0.10701,-0.57858,0.38161,-0.67127,0.10927,0.079426,0.022372,-0.081147,0.011182,0.67089,-0.19094,-0.33676,-0.48471,-0.35406,-0.15209,0.44503,0.46385,0.38409,0.045081,-0.59079,0.21763,0.38576,-0.44567,0.009332,0.442,0.097062,0.38005,-0.11881,-0.42718,-0.31005,-0.025058,0.12689,-0.13468,0.11976,0.76253,0.2524,-0.26934,0.068629,-0.10071,0.011066,-0.18532,0.44983,-0.57507,0.12278,-0.064878,0.044456,-0.020999,-0.069838,-0.47329,-0.43074,0.39158,-0.047815,-0.93659,-0.55128,-0.1422,-0.15829,0.15623,0.070461,0.19892,0.18942,-0.19339,-0.46594,-0.028825,0.0056752,-0.0054038,0.43144,0.12257,-0.2611,0.04847,0.32244,-0.31064,-0.10559,0.97954,0.069626,-0.023187,-0.86293,0.48273,0.23649,-0.0034704,-0.18932,0.18588,0.023211,-0.30643,-0.35717,0.19605,-0.1584,-0.0058626,0.35248,0.036053,-0.53933,0.49435,0.45332,-0.18477,0.040648,-0.094517,-0.07116,0.74005,-0.11465,-0.26916,0.089765,-0.25205,-0.21469,-0.38847,0.32509,0.25773,-0.51764,-0.38457,0.028254,-0.21232,-0.27311,0.69178,-0.37681,0.14241,-0.24926,0.40314,-0.052916,0.07684,0.2135,0.10921,0.049658,0.02093,0.11953,0.28648,0.87791,0.085838,0.31983,0.51856,-0.22628,0.12402,0.48805,0.22111,-0.52021,0.0025106,-0.13305,-0.052565,0.32744,0.64985,0.072426,-0.52743,-0.20913,-0.27897,-0.10834,-0.10103,0.15299,-0.36681,0.082445,0.1739,-0.28099,-0.069136,0.7895,0.060571,0.38693,-0.16495,-0.21801,0.33288,-0.44568,-0.49892,-0.34438,-0.035606,-0.24239,-0.4747,-0.17254,0.071349,1.4091,0.46166,0.46546,-0.30979,0.37203,0.47897,-0.28872,-0.65515,-0.13629,-0.14287,-0.04843,-0.12786,0.18941,-0.037051,0.59471,-0.0051618,-0.0086009,-0.33313,0.288,-0.058965,-0.67275,0.15544,0.074187,-0.36441,-0.021285,-0.065337,0.13827,0.008395,-0.041113,0.29401,-0.10344,-0.052371,-0.63084,0.16311,0.052826,-0.021797,-0.28115,-0.078361,-0.38124,0.078089,0.38411,-0.34629,-0.4322,0.091731,-0.67867,-0.041138,-0.53981,0.10678,0.03343,0.81396,-0.19448,0.026248,-0.14215,0.2954,0.62738,0.26499,0.6191,-0.04113,0.12301,0.3158,0.10698,0.023654,-0.41355,0.034852,0.21361,0.045834,0.053415,-0.36421,0.19707,0.50916,-0.1949,-0.18788,-0.24449,-0.63397,-0.23125,-0.18823,-1.0601,0.47794,-1.0102,0.24604,-0.4876,0.79146,-0.11047,-0.21762,-0.6178,0.27815,-0.098169,-0.063205,0.066069,-0.69305,-0.25928,0.44591,-0.64198,-0.33084,-0.30154,-0.56359,0.60501,-0.09673,0.44444,0.22007
celery,-0.33936,-0.23033,0.31509,-0.45232,-0.31908,0.15344,-0.23713,-0.091438,-0.32731,0.69706,0.5656,0.15708,0.24139,1.4123,-0.3408,0.5608,-0.65215,0.63861,-0.25928,0.87015,-0.50888,-0.37671,0.21394,-0.19447,0.053593,-0.59356,0.24588,0.19376,-0.73393,0.12901,-0.74006,0.83092,0.21362,-0.021908,0.033581,0.5486,0.17164,0.39037,-0.93576,-0.33473,0.54071,-0.33588,-0.024003,0.26289,-0.33239,-0.16827,0.084049,0.68515,-0.5967,0.20622,0.29331,0.58693,-0.008791,-0.28323,-0.39929,-0.37829,-0.067417,0.26013,0.60878,0.46792,0.64747,-0.081229,0.13607,0.189,-0.58677,-0.35642,0.11342,0.40682,0.7288,-0.42316,-0.33165,-0.3525,0.38758,0.15785,-0.6372,0.39172,0.54287,-0.3198,-0.18046,0.16061,-0.42521,0.082571,0.24134,0.1555,0.33678,-0.23325,-0.44107,-0.27313,-0.52474,-0.59574,0.57876,0.12015,0.52531,0.22112,-0.13732,0.065976,0.62302,0.4191,0.51683,0.61138,-0.15934,-0.48204,0.098418,-0.31793,-1.3449,0.33156,-0.115,-0.044348,-0.50565,0.56789,0.30653,0.2958,0.30166,-0.26839,-0.58603,0.023229,-0.72373,1.3144,0.39,0.21552,-0.31174,-0.80875,0.39204,0.19726,-0.32461,-0.010413,0.27106,0.73681,-0.56202,0.95639,0.34301,1.1003,-0.040443,0.5954,-0.031312,0.045706,0.34012,0.18504,-0.45071,-0.018925,0.5544,0.55535,-0.42513,-0.039648,-0.00063806,0.43624,-0.025751,-0.027582,0.88013,-0.43763,-1.2348,0.31988,0.4027,0.73694,-0.60669,-1.0159,0.41232,0.053411,-0.9039,0.30646,-0.23261,0.74515,0.18733,-0.46292,0.26523,0.10147,0.032575,0.51917,-0.3655,-0.90058,-0.07636,-0.30295,0.033428,-0.12505,-0.40458,0.027132,0.094029,0.26373,0.40308,-0.2272,-0.17206,0.094033,0.68842,-0.50557,0.51942,-0.18479,0.80804,0.70568,0.56726,-0.25818,-0.57544,0.83801,-0.0279,0.44928,0.37535,-0.078977,-0.08395,-0.043769,0.73148,0.29248,-0.0040753,0.31929,0.81549,0.35264,0.12071,0.7664,0.39175,-0.1199,-0.12782,0.1906,0.55507,0.15154,-0.23528,0.08785,-0.28324,0.070045,0.72079,-0.14785,-0.012008,-0.14924,0.12796,0.83305,-0.58409,-0.018911,-0.23883,-0.50995,-0.20213,-0.053954,0.2061,-0.054313,0.23931,0.32656,-0.31755,-0.058028,0.26881,0.8775,-0.1248,0.025104,-0.71323,0.052934,-0.054836,-0.13217,0.18265,-0.1025,0.11275,-0.61114,0.57723,0.11166,0.16004,-0.83055,0.56037,0.54871,-0.40175,-0.33295,-0.24294,0.86885,-0.20584,0.4427,-0.31088,0.2069,0.21388,-0.50065,-0.29507,0.224,-0.065149,-0.34282,-0.27881,0.090847,-0.11579,0.54408,-0.38613,-0.0047178,-0.593,0.86549,-0.49673,0.42368,0.35003,-0.59238,-0.6725,-0.7529,0.036803,-0.37479,0.050155,0.33551,0.2239,0.37287,0.16476,-0.11583,0.14086,0.029617,0.065375,0.31536,0.2405,-0.81224,-0.44961,-1.2853,-0.25575,0.031392,0.63165,0.28958
chair,0.26288,-0.34735,-0.066811,-0.54137,-0.16543,-0.4113,-0.15191,-0.72511,-0.091526,-1.0731,-0.21672,0.18074,0.007132,-0.37416,0.43462,0.40037,0.22786,0.65643,-0.021995,-0.23408,0.01183,0.50484,-0.35343,-0.048301,-0.16914,0.10821,0.26714,-0.19253,0.14933,-0.36426,0.22751,-0.3485,0.41123,0.44848,-1.0098,0.56136,0.28445,-0.46063,-0.21184,0.26158,0.05406,-0.39451,-0.72516,-0.24419,0.22813,-0.040664,-0.17153,-0.34963,0.2377,0.23925,-0.35809,0.22285,0.045329,-0.16477,-0.16048,0.16004,-0.1487,-0.28536,0.067689,0.16285,0.16503,0.41007,0.19622,0.43399,-0.17326,-0.84547,-0.48517,0.18441,-0.48347,-0.16789,-0.39367,0.22717,-0.012973,0.0057874,-0.11799,-0.071603,-0.027664,0.62465,0.11688,-0.85215,-0.16934,-0.061497,-0.23912,0.16618,0.24263,-0.40026,0.10968,0.9017,-0.53714,-0.061908,0.27383,0.021373,-0.089779,-0.18124,0.015042,-0.43666,-0.049903,0.034739,0.10566,-0.066265,0.26143,0.30489,0.093483,-0.075748,0.32563,-0.055995,0.084774,0.027318,-0.26122,-0.56515,-0.14591,0.032099,-0.63133,0.025946,-0.24346,0.18219,-0.12268,-0.16399,0.090297,0.38321,-0.59827,0.25702,-0.41777,-0.32479,0.073994,-0.29516,-0.13135,-0.39541,0.11669,0.14214,0.23187,-0.29866,0.087262,-0.38218,-0.49865,-0.25824,-0.064516,0.58431,-0.5667,0.082143,0.2922,0.4655,0.22288,0.016992,0.21744,0.35655,0.067358,-0.019023,-0.35232,-0.12151,0.62931,0.36017,0.50084,-0.26696,-0.6836,0.25891,0.08095,-0.43374,0.052471,0.39305,0.16622,0.71774,0.11808,-0.32932,0.40801,0.0064573,-0.043032,0.29342,0.25567,0.42705,-0.53552,0.67649,-0.10678,-0.3978,-0.12916,-0.30146,-0.14089,0.99601,-0.1305,-0.55658,0.1782,-0.13925,0.057779,0.43664,0.35001,-0.22999,-0.62618,0.40345,-0.032496,-0.022293,0.58286,-0.15579,0.11272,-0.26909,-0.43672,0.459,-0.081416,0.6542,-0.24707,0.1447,0.80749,0.13562,0.1922,0.031007,-0.071341,-0.40361,0.41713,-0.10426,-0.19787,-0.022537,0.42874,-0.11561,0.12082,-0.13225,0.095848,0.32152,-0.597,-0.75548,-0.25992,-0.63549,-0.31303,0.047325,-0.19442,0.11598,-0.14563,0.26155,-0.18572,0.23458,-0.44775,-0.03043,0.40137,-0.11638,-0.15205,0.06029,0.21925,-0.067026,-0.35741,0.17171,-0.33893,-0.30232,0.13413,0.090298,-0.38746,0.10396,-0.21244,0.60908,-0.095747,-0.26722,-0.58356,-0.1392,-0.2757,-0.37958,0.50873,-0.53531,0.26426,0.24384,-0.58849,-0.2261,0.1312,-0.065072,-0.53058,-0.41471,0.37223,0.59929,-0.16639,-0.80862,0.43086,0.54674,0.00027524,0.71967,-0.63574,-0.22461,-0.1246,-0.35363,-0.12981,-0.34682,-1.0077,0.49169,0.16506,0.28804,-0.66238,-0.42212,-0.26845,-0.51605,0.031118,0.49397,-0.039259,0.43592,-0.0017542,-0.32901,0.40113,0.05714,-0.22851,-0.014979,-0.50594,0.62951,0.10739,0.10382,-0.21384,0.83684
chimney,0.27776,0.10129,-0.36049,-0.53621,0.090562,0.55391,-0.4469,0.18734,-0.75869,-0.013877,-0.11276,0.45252,0.3831,-0.16345,-0.49178,0.65508,-0.29523,-0.95153,-0.049877,-0.27175,0.1762,0.11831,-0.024454,0.39465,0.36224,0.28391,-0.26897,0.37694,-0.40436,0.51481,0.22556,0.91632,-0.28422,-0.35009,0.6536,0.49296,-0.41491,-0.061957,-0.078945,0.56498,-0.20263,0.33004,0.41174,0.036851,-0.47533,0.72987,0.50836,-0.40842,-0.49174,-0.4328,-0.55888,-0.057194,-0.11452,0.37954,-0.18739,0.28263,0.25139,-0.40712,-0.060822,0.75965,0.017466,-0.61327,0.66861,0.77254,0.17017,-0.29208,0.35636,0.55611,0.035976,-0.48812,0.51991,-0.2186,0.050164,-0.036499,-0.11306,0.25331,-0.37028,-0.33893,0.27093,-0.66607,-0.22533,0.33266,0.48799,-0.15477,0.89301,0.28484,0.006062,0.40835,-0.13935,0.31519,0.39367,-0.50213,0.20742,0.90521,-0.42782,-0.21035,-0.10851,-0.3284,-0.26412,-0.0090194,-0.37745,0.53973,-0.45431,-0.27883,0.35171,0.16312,-0.43543,0.5679,-0.5061,0.51048,-0.59326,-0.57317,-0.083794,-0.54503,0.32901,0.043044,-0.84394,0.018803,-0.50294,-0.094936,0.48769,-0.24911,0.23884,0.37381,-0.1111,-0.0069486,-0.0237,-0.24538,-0.012918,-0.027413,0.34588,0.51098,-0.15404,-0.21436,1.073,0.27092,-0.59678,-0.032845,0.42146,-0.2467,0.83502,0.15216,-0.32363,-0.32284,-0.511,-0.07075,-0.30093,0.61598,-0.28741,-0.025218,-0.49485,-0.28974,-0.53919,-0.59314,0.4079,0.68952,0.85372,-0.28567,-0.50494,0.17745,-0.33355,0.3132,0.15697,0.31317,-0.073398,0.77165,0.48464,0.02763,0.9155,-0.62118,0.057068,0.37003,0.64072,-0.081982,-0.13439,0.27113,-0.29517,-0.37165,-0.096963,-0.92634,0.19429,-0.37801,1.1404,-0.29999,-0.25062,-0.31497,0.26161,0.23877,0.24111,0.29737,0.42458,0.4874,-0.66966,0.22231,0.25038,-0.0038946,-0.34743,0.066982,0.39592,0.14247,-0.11499,0.18019,0.48365,-0.28972,0.33186,0.37656,0.060361,-0.48402,-0.33559,0.00094948,0.3924,0.28503,0.34542,-0.32607,0.54566,0.13039,-0.25788,-0.83136,-0.043431,-0.10325,-0.31043,-0.14944,-0.087973,-0.026727,0.1225,-0.25784,-0.74945,0.091262,0.131,0.21834,-0.21509,-0.25984,-0.29169,0.03327,0.066464,-1.1416,0.4305,0.0059916,-0.16912,-0.43959,0.29955,-0.23981,-0.28585,-0.22346,-0.16603,0.117,0.77767,0.22936,0.61077,0.078526,0.027029,-0.891,0.11433,-0.46024,0.34971,-0.33876,-0.20909,-0.30837,-0.49721,0.1308,0.30688,-0.023583,-0.10335,-0.11355,-0.38604,-0.34718,0.20668,0.20869,0.23204,-0.15979,0.09912,-0.64916,0.66182,0.30516,-0.56488,0.21549,-0.66674,0.29119,-0.63752,0.45932,-0.31542,0.14064,-0.26261,0.45008,0.10368,0.58101,-0.0073937,-0.22364,-0.4603,-0.4127,-0.35287,0.68628,-0.25776,0.21997,0.26914,-0.43988,0.68061,0.076449,0.61495,0.67762
chisel,0.19485,-0.35087,-0.12564,-0.5224,0.64552,0.060646,-0.54917,0.43877,-0.21136,0.3823,0.14239,0.11246,0.12418,-0.64429,-0.56806,-0.50113,0.16197,-0.18024,-0.037553,-0.015221,0.33652,-0.16368,0.44576,0.49606,0.14098,-0.13134,-0.12857,-0.15239,-0.59482,-0.2086,0.32319,-0.13247,0.19422,-0.1228,0.63799,-0.042467,-0.62072,0.64283,-0.45754,0.0010993,0.24593,0.7908,-0.02277,-0.19984,0.57226,0.55644,-0.31183,-0.19071,0.0088343,0.10503,0.36663,-0.84548,-0.10612,0.26017,0.26861,-0.15775,-0.87751,0.5156,0.21956,0.013092,0.40108,0.49938,-0.019158,0.32392,0.081494,0.39465,-0.056565,0.78243,0.51293,-0.18343,0.76782,0.67248,-0.20901,0.30697,-0.012482,0.42696,-0.85532,0.04849,0.33106,-0.49777,-0.62525,0.38796,-0.12327,-1.1816,-0.087503,-0.24571,0.38499,0.46963,0.39221,-0.43168,0.58468,0.56505,0.19497,-0.36793,0.14919,-0.66817,0.46706,-0.71666,-0.54012,0.64899,0.0015429,-0.63964,-0.83894,0.016222,-0.77045,-0.23518,-0.21591,-0.55891,0.20113,-0.38758,-0.096266,-0.1496,-0.71846,-0.26268,-0.35008,-0.1829,-0.77674,0.019048,0.1326,-1.0075,-0.2762,-0.36721,-0.66144,-0.14012,0.45452,0.31544,0.54442,-0.015557,-0.13047,-0.60426,-0.043783,0.054026,0.53308,0.30337,0.28823,-0.4113,-0.41078,-0.13622,0.52858,0.601,0.50069,0.23561,-0.85779,-0.79831,-0.58392,0.78312,0.17116,0.23753,-0.081526,-0.2107,-0.8668,0.022295,-0.079825,-0.40171,-0.22247,0.054455,-0.26157,-0.61485,0.77365,-0.31857,-0.95757,0.38898,0.51654,0.069528,0.11449,0.60825,0.359,0.79009,0.73971,-0.60236,-0.20409,-0.18655,0.56446,0.28124,-0.55301,-0.12022,0.1968,0.059398,0.88469,-0.32011,0.35853,-0.2805,0.60706,0.1933,0.28404,-0.44085,0.58981,0.13551,0.40628,0.51521,0.028915,0.082784,-0.48482,-0.40237,0.35819,0.27801,-1.0587,-0.29226,0.46927,-0.39063,-0.075343,-0.17359,0.020452,0.084654,-0.13899,0.6167,0.032628,-0.6433,-0.62062,-0.087575,0.78051,-0.25954,0.18644,0.61738,0.37638,0.17349,0.19745,0.26309,-0.17905,-0.31797,-0.5682,0.17779,-0.018035,0.14108,-0.28267,-0.28123,-0.41148,-0.61973,0.0037253,-0.48234,0.26332,-0.71597,0.053561,-0.6116,-0.68682,-0.41877,-0.87679,-0.12245,0.1847,0.095153,-0.16884,-0.41225,-0.56787,-0.39758,-0.42613,0.1501,-0.23689,0.050195,-0.34103,-0.61593,-0.11522,-0.063,0.39654,-0.65116,-0.099919,0.63565,0.1339,0.17862,-0.64248,0.72819,0.25344,0.17537,-0.043821,-0.021563,0.031211,1.0257,-0.38496,0.35694,-0.52394,-0.161,0.27492,0.07532,0.27933,0.35886,-0.24925,-0.3965,-0.28512,-0.25035,-0.77536,-0.73338,-0.62533,0.50251,-0.57728,-0.16854,0.57715,0.34896,-0.64808,-0.56716,-0.12379,0.053052,0.035898,0.30761,0.57232,-0.045276,-0.61401,-0.68628,-0.23255,0.41423,-0.023817,0.3204
church,-0.65236,-0.74691,-0.71397,-0.0059515,-0.25791,-0.21593,-0.35199,-0.11603,-0.056036,-1.2818,-0.16411,0.70748,0.52123,0.32779,0.17387,-0.5392,-0.18577,-0.47875,-0.24883,-0.61994,-0.023263,0.12549,0.045752,0.11284,-0.020099,0.23056,-0.41756,-0.25315,-0.69738,0.41158,0.88808,0.83852,-0.66068,0.70719,-0.26742,0.2089,-0.2784,-0.61088,-0.15425,-0.094716,-0.047709,0.26722,-0.43974,0.63775,0.65149,0.26827,0.43333,-0.22958,0.022457,-0.028404,-0.035517,0.51799,-0.48083,0.47857,-0.054612,0.25212,0.1837,0.61679,0.01383,-0.1495,0.92265,0.17462,0.46116,1.1371,0.094208,-1.1291,0.14716,-0.27944,-0.055114,-0.38174,-0.77342,-1.0166,-0.6523,0.026552,0.1046,-0.2424,-0.013207,0.28134,-0.43128,-0.39136,-0.47673,-0.072558,-0.46368,0.22186,0.020483,0.17291,0.26031,0.3155,0.009202,0.35491,0.044172,-0.7893,-0.19732,0.40709,-0.20552,-0.64046,0.33856,0.051958,-0.99753,0.097035,-0.19655,0.15618,4.0148e-05,0.1224,0.50559,-0.096441,0.18507,0.62725,-0.23697,-0.33572,-0.22439,-0.33054,-0.073366,0.23306,-0.38155,-0.46932,-0.15338,-0.4837,-0.47415,-0.39693,0.075248,-0.073612,0.53608,-0.081917,0.31823,0.032793,0.46049,0.39314,0.060569,0.034119,0.57197,-0.41926,0.10953,-0.065255,0.73385,0.041742,-0.1146,-0.16912,-0.42705,-0.50083,-0.096355,0.10553,-0.31399,0.21462,-0.17099,-0.20017,-0.080777,0.20192,-0.0080657,-0.12904,0.35956,0.064637,-0.15577,-0.0029562,-0.25755,0.97339,0.093954,0.58855,0.19377,0.11879,0.39292,0.47768,0.72508,-0.16697,-1.1801,0.25349,-0.47512,-0.10155,0.78275,-0.50566,0.11002,-0.056355,-0.1476,0.28967,0.44562,0.79979,0.12428,0.12406,-0.47624,0.20965,0.09463,0.70684,0.028187,-0.30648,0.64536,0.13357,-0.90099,-0.1719,-0.061909,0.40129,0.10413,-0.082748,0.021158,0.44024,0.019293,-0.18425,0.46966,-0.72139,-0.18506,0.41324,0.61568,-0.60873,0.0037965,-0.4135,0.15126,-0.48022,-0.055268,0.11078,-0.20642,0.51792,0.12861,0.73469,-0.72361,-0.65222,-0.382,0.27681,0.15677,-0.23744,0.030607,0.59363,0.26097,-0.11371,-0.2578,-0.3137,-0.19726,-0.36544,-0.17271,0.20527,0.2042,0.22191,-0.32825,0.33795,-0.04817,0.12778,0.03103,-0.37792,0.69735,0.18845,-1.2843,0.20494,-0.26503,-0.14255,0.45182,-0.60787,-0.18771,0.4386,0.48597,0.40124,0.1856,0.11583,-0.028147,0.31505,0.35986,0.053114,0.5838,0.071427,0.070998,-0.66435,0.25722,-0.18164,-0.32099,0.20142,0.15926,0.00074549,0.0073609,-0.68778,-0.29136,-0.11626,0.050362,0.17669,-0.85392,-0.30376,0.17468,0.25613,-0.1938,0.095019,-2.1267,-0.045457,0.71247,0.72286,0.45286,-0.056705,0.22523,-0.19072,-0.30487,0.73239,-0.49744,0.37551,0.18304,-0.0644,-0.38289,-0.15445,0.22412,0.65258,0.18425,0.014896,-0.15189,0.30928,0.10806,-0.12449
closet,-0.14757,-0.18574,-0.46697,-0.28526,0.33701,0.56914,-0.18359,-0.55936,0.24078,-0.15973,0.1903,0.12624,0.58306,-0.002366,-0.57643,-0.28954,0.63713,-0.25368,0.40982,0.2416,0.23731,0.18171,0.7392,-0.28107,0.078221,-0.098459,0.24456,-0.37377,0.92932,0.072891,-0.38922,0.36279,-0.12862,-0.27558,-0.1875,0.51652,-0.32401,0.17061,-0.59492,0.12611,0.28597,-0.22817,0.26,-0.2592,0.14917,0.3902,0.23997,-0.26382,-0.63779,-0.42989,0.20847,0.26198,-0.05671,0.024987,-0.093493,-0.092804,0.13455,0.10194,-0.14851,0.36005,-0.050613,0.3941,-0.13135,0.78392,-0.22135,-0.89278,0.028578,0.16382,-0.15183,-0.12245,-0.31738,-0.44257,-0.13395,-0.07284,0.14171,0.3528,-0.66383,-0.00093023,-0.3645,-0.30862,-0.0016219,0.3858,-0.15287,0.10849,-0.054453,-0.30498,-0.30428,0.25824,-0.46414,-0.51029,0.12956,-0.22885,0.09885,0.1813,0.061539,0.13915,-0.18641,0.1998,0.84328,-0.87427,0.21748,0.048859,-0.72973,0.056888,-0.22068,-0.22694,0.53551,0.080181,0.00863,0.37643,-0.4314,0.10649,0.18239,-0.1006,-0.33129,0.28621,0.38857,-0.50655,-0.02088,-0.77547,0.092626,-0.12127,0.27461,0.2345,-0.27071,0.078783,-0.021293,0.57654,0.071443,-0.28926,0.31831,-1.0487,-0.092636,-0.35182,0.66391,0.031154,-0.34231,0.24423,-0.32219,-0.17323,0.22039,-0.033243,0.15715,0.28584,0.010266,-0.40837,-0.33761,-0.11461,0.50914,-0.15509,-0.30309,0.57702,-0.20858,-0.20555,0.15414,0.082842,-0.017682,0.50161,0.20165,0.77127,0.16614,0.21034,0.37595,-0.21224,0.38258,-0.18956,0.37401,-0.35548,0.64733,0.033375,-0.15141,0.36042,-0.35314,0.26162,-0.016031,0.2714,-0.027058,0.43265,0.31443,-0.35342,0.37598,0.03078,0.98651,0.47389,0.58286,0.26769,1.2519,0.62079,0.65733,0.16904,0.06437,-0.1063,-0.57542,0.060754,-0.27869,0.0033116,-0.92169,0.44819,-0.73422,0.060651,0.25445,-0.43961,0.40467,-0.10449,0.65847,-0.033061,0.078863,-0.35727,-0.22109,0.15549,-0.74921,-0.028577,-0.5997,0.23158,0.66346,0.028904,-0.24344,-0.36406,-0.17237,-0.085462,-0.094728,0.50459,0.051311,0.39948,0.10539,-0.022841,-0.55683,-0.027652,0.19345,-0.6562,0.51339,-0.51205,-0.67777,-0.29156,0.13499,0.089933,0.007181,-0.17064,-0.62484,0.14986,0.41192,-0.12494,-0.76813,0.31968,-0.27721,-0.14544,0.58386,0.69285,0.19287,-0.1398,-0.060144,0.25737,-0.076445,-0.44603,0.18246,-0.14906,0.39032,-0.56366,0.4307,0.059497,-0.14598,-0.26441,0.31585,-0.1153,-0.0047127,-0.030232,-0.26047,0.43122,-0.016143,0.44912,0.16324,0.36047,-0.12217,-0.094455,-0.50657,-0.096072,-0.74172,-0.085017,-0.46443,-0.11289,-0.3494,-0.0057404,-0.098824,-0.15834,-0.044143,0.77401,-0.004367,0.83858,-0.24956,-0.29092,0.16044,0.050461,0.17777,0.17336,0.04778,-0.3073,0.57987,0.35907,0.27019,0.87981
coat,0.033258,-0.43096,-0.057869,-0.4051,-0.0048209,-0.35262,-0.37576,-0.024196,0.27134,-1.044,0.041621,-0.080501,-0.17119,0.33866,0.067598,0.2361,0.2072,0.11742,0.02793,-0.64869,-0.64638,-0.40874,0.61836,0.65263,0.091687,-0.65062,0.50627,0.58326,-0.22704,-0.44452,0.43415,-0.074509,-0.32175,0.34691,0.056705,0.5999,0.18929,0.093928,-0.66894,0.50048,-0.28554,-0.92748,0.078794,-0.042132,0.73489,-0.20796,0.12732,-0.14063,-0.1738,-0.094068,-0.48621,-0.11345,0.5636,-0.058981,-0.21907,0.17524,0.0044797,-0.44299,0.36776,0.14265,0.35015,0.1883,0.0021281,-0.0082477,0.32422,-0.5783,-0.39751,0.21793,0.27422,0.02994,0.38415,-0.14993,0.18224,-0.43456,-0.39703,0.26508,-0.024196,0.23746,-0.15455,-0.44258,-0.024225,0.35267,0.072055,-0.3278,0.36085,-0.10343,-0.13367,-0.18573,-0.62927,0.05018,0.068539,-0.24574,0.13681,0.077165,-0.62514,-0.00067744,0.13089,0.78084,0.22333,0.60303,0.34009,0.24444,-0.1437,0.10514,0.096916,-0.10392,0.18826,-0.00047336,-0.19232,0.98136,0.5808,0.79367,-0.14301,-0.075578,-0.30111,0.41788,-0.65203,0.47015,0.25541,-0.5964,-0.39029,0.10637,0.87716,0.27089,-0.061702,-0.21243,0.27584,0.65904,0.18556,0.40603,0.30904,0.070378,-0.70211,0.91661,0.073784,-0.081896,-0.26199,0.28981,0.31539,0.48425,-0.043838,0.18091,-0.39834,-0.057047,0.20235,0.39478,-0.069515,0.11421,0.38515,0.27382,-0.070725,0.60265,-0.82293,-0.76086,-0.051093,0.081591,-0.26129,-0.3374,0.16258,0.57301,0.18702,0.04914,-0.48928,-0.12185,0.11753,-0.19665,0.15842,0.42115,0.52238,-0.37151,-0.11433,-0.27559,-0.12233,0.37311,0.30515,0.019198,0.35389,-0.24319,-0.60998,-1.2091,0.26655,0.2721,0.38498,-0.11009,0.37809,-0.02607,0.85769,0.10325,-0.5168,-0.093759,0.05406,0.45771,-0.22436,-0.11529,-0.030691,-0.42908,-0.23431,0.29292,-0.32908,-0.099491,0.79404,-0.28185,0.30518,0.20051,0.48026,-0.21887,0.30484,0.1999,-0.32947,-0.20559,0.53393,-0.24369,-0.18614,0.11889,0.37784,-0.45444,0.74594,-0.47566,0.22109,-0.58483,-0.048876,0.082401,0.28836,-0.23331,0.14142,-0.21155,0.18242,-0.3193,0.27111,-0.24837,0.63123,0.19477,-0.43663,0.43436,0.12604,0.086425,0.41219,-0.40386,-0.38646,0.63508,0.50137,-0.15086,-0.33777,0.15017,-0.84961,0.49419,-0.078985,-0.42761,0.047857,-1.1917,-0.3315,0.24169,0.29558,-0.67576,0.77889,0.19178,0.049075,0.22618,-0.22225,-0.1647,-0.26056,-0.11768,0.45974,0.33882,-0.3517,0.22335,-0.27577,-0.17744,-0.37925,-0.25759,0.046144,-0.50231,0.17796,-0.37442,-0.4879,-0.058662,-0.77804,-0.43129,-0.68925,0.0040151,0.47132,0.43169,0.073517,-0.15229,-0.81243,0.7384,0.14448,0.38852,0.3379,-0.20303,0.28356,-0.13236,-0.25252,0.54535,0.19644,-0.37775,0.36085,0.46415,0.70419,0.59202
corn,-0.34935,-0.11234,-0.26714,0.023943,-0.19485,0.18333,0.15329,-0.14471,-0.029271,-0.31614,-0.3777,-0.47992,-0.32679,0.24296,-0.32469,-0.13532,-0.15617,-0.053656,-0.14306,-0.019348,-0.54722,0.0058541,0.49176,-0.024525,-0.056165,-0.087314,-0.35136,-0.30423,-0.57448,0.20628,-0.23059,0.36253,-0.86068,0.42352,-0.39691,1.1799,0.10356,0.19563,-0.095417,0.50561,-0.16929,0.141,0.16047,0.6227,0.19559,-0.33153,-0.11513,-0.34013,-0.070928,0.24939,0.45811,0.766,-0.10784,-0.0031801,-0.48138,-0.40442,0.13786,-0.42364,0.34526,-0.41329,-0.096881,-0.15948,0.46478,0.19213,-0.78874,0.10875,0.13474,0.087171,-0.30385,0.14966,0.26803,0.72606,-0.27369,-0.49723,-0.60811,-0.28795,0.36755,-0.47366,-0.32018,0.50837,0.47991,0.076536,-0.2092,0.20321,0.14098,-0.31638,-0.24675,0.15149,0.14832,-0.62039,0.27212,-0.44366,0.36586,-0.028204,-0.2592,0.1802,-0.4593,0.79719,-0.35764,0.83066,-0.050565,0.47649,0.32707,-0.40328,-0.80331,0.22766,-0.47879,0.82981,-1.0268,0.58232,0.025879,-0.44747,-0.30498,-0.4374,-0.39685,-0.019086,0.22681,0.37591,0.28404,0.3769,-0.88867,-0.35171,-0.019131,0.70795,-0.30632,-0.080128,0.49817,0.50982,0.40206,0.26888,0.14922,1.1521,-0.52285,0.25567,0.29366,0.25043,0.33312,0.49003,0.13684,0.42864,0.10956,0.581,-0.034714,-0.74765,-0.6171,0.64106,-0.10931,-0.13817,0.24885,-0.71455,-0.49574,0.64023,-0.3041,-0.025347,-0.48937,0.73273,-0.49748,-0.12813,-0.013178,-0.051756,0.39798,0.021744,-0.20752,-0.24841,-0.088683,0.26411,0.18895,-0.77057,-0.13659,-0.44896,0.093182,0.050504,-0.15934,0.10756,1.0896,0.015545,0.56541,-0.082993,-0.39625,0.023945,-0.46915,0.61342,-0.26852,-0.47405,-0.45145,-0.27547,0.68477,0.2553,0.49937,-0.51478,-0.82942,0.99139,-0.39661,0.15383,-1.0169,-0.13396,0.13172,-0.36033,0.0034929,-0.24335,0.19491,-0.29378,0.50722,0.82579,-0.16012,-0.049314,0.47027,0.65678,-0.32312,-0.21402,0.14409,-0.76517,-0.13409,-0.10163,-0.27218,0.62252,0.12621,0.0046489,0.5244,-0.3131,0.73052,-0.65409,-0.47542,-0.48143,-0.27801,-0.046237,0.3835,0.5773,0.15172,-0.067585,-0.029667,0.60199,-0.062157,0.86018,0.32762,0.3261,0.43263,0.37085,-0.76824,-0.014688,-0.55601,0.41437,-0.51001,0.14107,-1.3303,-0.77512,0.10986,-0.45034,0.013793,-0.86271,0.18343,0.025191,-0.41781,0.11452,0.15423,0.36855,-0.55834,-0.012858,0.22809,-0.13042,-0.096663,-0.23081,-0.22396,-0.37544,0.34596,-0.15013,-0.39367,-0.24251,-0.6138,0.19944,0.16964,0.29732,-0.10597,0.36942,0.073573,-0.33854,-1.233,-0.60855,-0.6722,0.11709,-0.33662,-0.4806,0.044666,0.23558,-0.10611,-0.12961,0.91651,-0.57846,0.16422,0.092347,0.76394,-0.035915,0.049794,0.2794,0.36798,0.10543,-0.39714,-0.96946,0.35315,0.6557
cow,0.51092,0.16385,-0.24109,0.0014606,0.1904,-0.18988,-0.034126,0.144,-0.64395,-0.64733,-0.062842,-0.59816,-0.52794,0.3027,-0.33028,0.74371,-0.068194,-0.3458,0.12726,0.40503,-0.24742,0.35513,-0.25302,-0.32441,-0.67428,-0.0045958,0.083815,-0.67053,0.33774,0.50672,-0.71136,0.090828,-0.22947,0.039603,0.26772,0.37321,0.073081,0.34881,-0.4292,0.29833,-0.12888,0.44632,-0.058722,0.26044,-0.42603,0.0055763,-0.37553,-0.27359,-0.20232,-0.11645,0.04352,0.52683,0.27893,-0.026128,0.38241,-0.25146,-0.048117,0.35187,-0.90735,-0.30982,-0.41644,0.5016,0.60246,-0.04465,-0.12192,-0.2796,-0.42473,-0.52743,-0.14403,0.26262,-0.085502,0.41859,-0.21808,0.013873,-0.26516,-0.17474,0.2133,0.21682,-0.28841,0.37217,-0.065851,-0.10673,-0.21779,0.30975,0.00065419,-0.49895,0.14331,0.053383,-0.54949,-0.2987,0.088182,-0.49335,-0.047088,0.087172,0.033617,0.15083,-0.19207,0.24272,-0.36547,0.5204,-0.088388,0.46545,-0.17962,-0.36388,-0.46779,0.1145,-0.11091,0.20301,-0.23057,0.72848,0.084969,0.23378,-1.0386,-0.0067574,-0.036052,-0.0804,0.54906,0.50055,0.27457,-0.76149,-0.34219,-0.66678,0.3062,0.43018,-0.25254,-0.0021079,-0.43192,0.49406,-0.61841,-0.43946,0.35802,-0.12048,0.19268,0.41863,0.28299,-0.48009,0.048733,0.38284,-0.10998,-0.060934,-0.0018918,-0.063463,0.39057,-0.67329,-0.17682,-0.0057804,0.47297,-0.1285,0.00032426,0.15946,-0.64471,0.67472,0.18373,1.1621,0.051081,0.011931,-0.62771,-0.02629,-0.077707,-0.16831,0.54815,0.18571,0.10783,-0.27015,0.4318,0.47446,0.25048,-0.44505,0.41016,-0.20166,-0.010385,0.58676,0.50706,0.13353,-0.24337,-0.8644,-0.20799,-0.50598,0.51921,-0.33905,0.34058,0.51317,-0.35764,-0.6171,-0.22476,-0.52622,0.10869,-1.1935,0.61764,-0.59551,-0.41295,0.31625,0.35562,-0.10079,-0.06506,-0.13194,0.16421,-0.78827,-0.4151,0.56347,1.3495,-0.21183,0.20846,0.42979,-0.1331,0.14578,-0.068692,0.26319,-0.44522,0.46655,-0.024891,-0.30731,-0.31079,-0.020325,-0.39355,-0.4805,0.33867,-0.65492,0.24977,0.28137,-0.47136,0.24389,-0.038576,-0.80377,0.66064,0.084675,0.097205,0.39988,0.24126,0.79081,0.14541,0.16157,-0.41668,-0.15744,0.35711,0.32493,0.58489,-0.35652,0.13659,0.054332,-0.41218,-0.59282,-0.13569,-0.57918,-0.77117,0.01496,0.0048115,0.17949,0.41375,-0.039261,-0.37881,-0.36853,-0.27954,0.14051,0.84351,0.0023193,-0.14467,0.40641,0.08795,0.21008,0.24909,-0.40116,0.27076,-0.25079,-0.26525,-0.1004,0.32995,-0.37214,-0.09069,-0.32056,-0.28197,0.0087248,0.037699,-0.53159,-0.16835,-0.085988,-1.5277,-0.1642,-0.070142,-0.30424,-0.61744,-0.031344,0.015951,0.30482,-0.48155,0.53815,-0.28257,-0.15983,-0.40081,-0.5244,0.60602,-0.1068,0.54838,-0.01473,-0.28276,-0.39266,0.41709,0.097241,0.80083,-0.36909
cup,0.2853,1.1604,0.43643,-0.79668,0.23233,0.22757,-0.27564,0.26498,0.023262,-0.46187,1.0063,-0.10185,0.12593,-0.020709,-0.91027,0.50722,-0.20742,0.3516,-0.57072,-0.46228,0.067776,-0.60861,-0.28019,0.0084597,-0.96253,-0.72114,-0.35653,0.73386,-0.76149,-0.4418,-0.67738,-0.37454,0.39863,-0.067284,-1.8498,0.68255,0.55923,0.38049,-0.011131,-0.29923,-0.13439,-0.66876,0.44993,-0.24541,0.66881,-0.16055,-0.192,0.77019,-0.14898,0.13029,-0.17713,0.41051,-0.17535,0.45315,-0.20813,1.1535,-0.028449,-0.11565,0.8639,0.16563,-0.42576,0.48639,-0.81553,-0.46676,0.0024678,-0.080823,-0.34134,0.2558,0.28274,-0.93934,0.084133,0.41559,-0.34715,0.075209,-1.053,0.16022,0.57484,-0.73144,-0.5188,-0.0010427,-0.20773,0.19792,-0.2249,0.0146,-0.24591,-0.55164,-0.55517,-0.25533,0.35597,0.037868,0.29384,-0.32517,0.59217,-0.8257,0.12662,0.34547,0.40732,0.16164,-0.24598,-0.27376,0.69831,0.52995,0.61227,-0.52018,-0.21611,0.41228,0.33894,-0.20567,-0.77231,0.35031,0.49462,-0.037678,0.19305,-0.58204,-0.40802,-0.71015,-0.42189,-0.010852,0.25941,-0.58284,-0.5853,-0.33403,0.82914,-0.50926,0.33638,0.70237,-0.55605,-0.46317,-0.50367,0.95343,-0.31,1.0283,-0.15086,0.47539,-0.058367,0.17502,0.39958,0.30438,-0.89135,0.14009,0.53989,0.32184,-0.17468,0.54296,-0.18855,-0.41389,-0.085185,-0.048573,0.19943,-0.030215,0.073024,0.57384,-0.12603,0.12976,0.23277,-0.61188,-0.81838,-0.40354,-0.15092,0.13556,0.059412,0.063882,-0.18439,-0.034213,0.2401,0.23676,-0.11862,0.21139,0.13449,-0.6916,0.63003,0.47592,-0.80335,-0.36965,-0.39664,-0.08252,0.12224,-0.47266,0.44712,1.4268,-0.21617,0.2422,0.85212,-0.47456,0.18944,-0.46897,-0.46172,0.17428,0.22709,-0.49439,1.0814,0.59221,0.46875,0.2641,-0.37066,-0.11895,0.98609,-0.24899,0.31108,0.24488,2.4071,-0.1926,-0.28679,-0.68879,0.38207,-0.5294,0.6217,-0.37949,-0.16647,-0.33112,0.14067,-0.039168,-0.15921,0.020751,0.067745,-0.40599,0.11435,-0.82253,-0.067925,-0.60754,0.37455,-0.25916,-0.35349,-0.13939,-0.24969,-0.62065,0.22201,-0.068314,-0.78246,0.26541,-0.55596,0.39105,0.007787,-0.23908,0.91554,0.25126,-0.11295,0.59261,-0.036863,0.19107,-0.018507,-0.38583,-0.094539,0.011538,-0.21448,-0.0033476,-0.2413,0.5137,0.16778,-0.67994,0.36503,-0.013352,-0.060538,-0.015175,-0.82886,-0.55515,0.39338,-0.57883,0.24877,0.64317,-0.0498,-0.2249,0.10157,0.34393,0.18026,-0.16555,-0.43312,-0.90053,-0.31166,-0.035667,0.22476,0.5387,0.19424,0.53535,0.38113,0.32646,-1.3502,0.26764,0.38671,-0.50099,-0.080637,-0.048833,0.46068,-0.1358,0.35048,-0.14744,0.18264,-0.68311,-0.5534,0.17641,-0.51124,0.44536,-0.39929,0.15475,0.85655,-0.22964,0.13523,-0.39542,0.1836,0.24845
desk,-0.73726,0.46152,-0.51172,-0.58037,-0.10295,0.29401,-0.34422,-0.067142,-0.4535,-1.1766,0.055335,0.89213,0.52849,0.39188,0.14841,-0.15376,0.028915,0.24661,-0.2142,-0.078447,-0.093872,0.1802,-0.00076101,-0.11687,-0.74894,0.20906,0.45106,0.05805,1.0347,-0.3385,0.0099668,-0.19623,-0.051176,0.18002,-0.87925,-0.15146,-0.45974,-0.58401,-0.21756,0.14563,-0.64148,-0.53298,-0.59543,0.13036,0.3463,-0.20622,0.16036,-0.35238,-0.11819,-0.094804,0.34426,0.11912,-0.097573,-0.2815,-0.1487,-0.088238,-0.1175,-0.040276,-0.36683,-0.26358,1.0549,0.21656,-0.14009,0.36542,-0.10907,-0.23113,-0.009484,0.64502,0.068046,-0.6389,-0.031785,0.010526,-0.64949,0.06313,-0.30684,0.38694,-0.22329,0.3451,0.59265,-0.75145,0.34533,0.63768,-0.39157,0.48393,0.068795,-0.19765,-0.49753,-0.085758,-0.37105,-0.10072,-0.012934,-0.94483,-0.047754,-0.090991,-0.20652,0.032048,-0.30669,-0.58137,0.69024,-0.4047,0.52233,0.45916,-0.12628,-0.10999,0.052018,-0.6498,0.48832,-0.021834,0.50176,0.19508,-0.37969,0.3587,-0.12619,0.20217,-0.76985,0.049413,-0.45151,-0.44144,-0.30651,-0.36399,-0.23597,-0.0023561,0.1459,-0.05528,-0.28736,0.3576,-0.40175,-1.4438,0.22803,-0.032183,0.63273,-0.23606,0.1941,-0.46802,-0.023702,-0.056135,0.071289,0.48634,0.29648,0.049501,0.10209,-0.041317,0.32379,-0.16607,-0.095743,0.085015,-0.46701,-0.044792,0.3325,-0.86899,0.45972,0.60408,1.1288,-0.80629,-0.51104,0.34208,0.01482,-0.21122,0.43273,0.094666,0.18039,0.17526,0.43775,0.67757,0.68182,0.34659,0.20331,0.095279,0.11068,-0.040369,-0.78067,-0.47878,-0.59889,-0.083177,-0.35767,-0.40083,-0.077626,-0.10833,-0.38595,-0.89378,-0.21775,-0.79002,0.49377,0.29792,0.24857,-0.52342,1.0591,0.35757,-0.33754,-0.25762,0.42904,0.40904,0.071436,-0.36409,0.2246,-0.36131,-0.25501,0.020542,-0.48375,0.095588,0.82852,-0.35312,0.12707,-0.11444,0.76296,-0.077675,-0.11896,-0.84816,-0.41422,-0.62967,-0.28394,-0.57839,0.14538,-0.20129,0.1817,-0.065852,-0.53339,-0.31587,0.032133,0.4114,-0.30534,0.18352,-0.25932,0.97104,0.12438,0.037377,0.1983,-0.077001,-0.16267,-0.39974,0.25316,0.010896,-0.2645,-0.094712,0.093119,0.14131,-0.20296,0.15099,0.070734,-0.08685,-0.21843,0.0769,-0.47322,0.52068,0.12511,-0.21521,-0.25058,0.0041207,-0.20415,0.4131,0.42498,-0.10485,0.031993,-0.14439,0.18825,-0.19493,-0.38361,0.043254,0.16871,0.10143,-0.44588,0.043908,0.70813,0.41133,0.59787,0.10012,0.54999,0.74137,-0.012018,0.4767,-0.62931,-0.3553,0.15884,-0.0028788,-0.14319,0.30066,-0.66378,0.9496,0.10676,-0.24442,-0.56617,-0.17447,-0.11724,-0.57485,0.39781,0.11048,0.1705,0.32132,-0.71031,-0.55795,0.39966,-0.0039076,-0.19228,-0.0097448,0.10771,0.19299,0.28979,-0.17377,-0.62512,0.69212
dog,-0.11043,0.81217,0.073668,0.19023,-0.052888,0.061468,0.16076,0.41302,-0.30199,-0.90827,0.27504,-0.03189,-0.28842,0.23447,0.47679,0.50124,0.29371,0.27029,0.054745,0.098038,0.57116,0.36755,0.040734,0.34347,-0.18256,-0.28935,0.023826,-0.19401,0.24444,0.13407,-0.16494,-0.26983,-0.26234,-0.21779,-0.87528,0.73822,-0.087931,-0.010876,-0.2654,0.34668,-0.55814,0.17591,0.16926,-0.15725,-0.5043,-0.201,0.66701,-0.032518,0.045012,0.065675,-0.16061,-0.73363,0.24642,0.34325,0.21899,0.048646,-0.59987,-0.058153,-0.051694,-0.57846,0.3,0.35078,0.46646,-0.0075309,0.10455,-0.51016,-0.055987,-0.10295,-0.26476,-0.04123,-0.028371,0.51979,-0.34849,-0.47217,-0.37229,-0.03279,0.13989,0.35716,0.19305,-0.21986,0.24136,0.40976,0.37516,0.14255,-0.034143,-0.72653,-0.10832,0.68616,-0.26335,-0.42345,-0.24253,0.15778,0.14258,-0.32749,-0.34699,0.16148,0.19603,0.41639,-0.2337,0.075816,0.15899,0.0016623,-0.048301,-0.10611,-0.19326,0.14494,0.015406,0.10629,-0.036699,0.6323,0.12986,0.49902,-1.1323,-0.12636,0.064718,0.12374,-0.49712,-0.014836,0.10488,-0.49818,-0.28856,0.38949,-0.031828,-0.28625,-0.098758,-0.07699,-0.24234,0.75793,0.34835,-0.7103,0.45318,-0.34418,-0.19459,0.61478,-0.02901,-0.27864,0.38556,0.10072,0.12895,0.017992,0.3367,0.20698,-0.38049,-0.0066661,0.1154,-0.085268,-0.14608,0.44514,-0.093674,0.23639,-0.11447,1.0948,-0.057823,-0.16295,0.5588,-0.018988,-0.071374,0.21319,0.061277,0.72759,0.62747,-0.1928,0.13057,0.17426,-0.10229,0.15232,0.525,-0.21919,-0.27185,-0.54186,0.31752,0.16375,-0.29039,0.17074,-0.31814,-0.96421,-0.1161,-0.29951,0.18686,-0.45986,0.41633,-0.17583,-0.34583,-0.27244,-0.50216,0.012852,0.59838,-0.11237,0.24697,-0.49048,-0.44188,-0.16255,-0.73313,-0.37677,-0.68925,0.061174,-0.42101,-0.13153,-0.008359,-0.01836,1.3686,0.046169,0.94622,-0.015126,-0.12477,0.48754,0.22384,-0.2182,-0.23389,0.15207,-0.28718,-0.63908,-0.22383,-0.18014,-0.33548,0.53587,-0.29367,0.10866,0.063411,-0.0093424,-0.15886,0.22602,0.11925,-0.41442,-0.078062,-0.097857,0.27938,-0.18348,-0.34584,0.18489,0.17402,-0.52198,-0.43306,0.16256,0.14032,0.35124,-0.1828,-0.35984,-0.13009,0.16304,0.31734,0.0037716,-0.045498,-0.42066,-0.44419,-0.68985,-0.49359,0.070281,-0.14377,0.62508,-0.056311,0.1885,-0.056785,0.14052,1.1973,0.71894,0.54332,-0.12461,-0.11978,0.30163,-0.16273,-0.04674,-0.25249,-0.030659,-0.32271,0.32361,0.33244,-0.027819,-0.33367,-0.023444,-0.50394,-0.20587,-0.13013,-0.35884,0.045384,-0.11863,-1.7257,0.39441,-0.53179,0.58209,-0.65771,0.36849,0.23518,0.10802,-0.83159,0.61486,0.25547,-0.45289,0.51446,-0.17911,-0.12389,0.18688,-0.41102,-0.70877,-0.37501,-0.66152,0.6773,0.33936,0.57994,0.068149
door,-0.01249,0.10816,-0.24888,-0.69305,0.31267,0.12725,-0.55746,-0.12387,0.06741,-1.3958,-0.44799,0.31585,0.31542,-0.20747,-0.48489,-0.21377,0.070977,-0.42008,0.05906,0.1959,0.49559,0.54171,0.27497,-0.3098,0.00022559,-0.24526,0.64175,-0.20558,0.029499,-0.094673,0.24826,-0.037875,0.10342,0.081823,-0.74535,0.69096,-0.47305,-0.43549,-0.30689,-0.27948,-0.47731,-0.029868,-0.4712,0.13645,-0.35482,0.5277,0.46479,-0.65751,-0.79624,-0.23151,-0.20946,0.1856,0.22273,-0.45463,0.017325,0.075871,0.22356,0.084418,0.15647,-0.24355,0.3147,0.11246,0.045436,0.42812,-0.14958,-0.48297,0.48416,-0.43006,-0.00018754,-0.43617,-0.47689,-0.4994,0.14997,0.43192,0.34473,0.40252,-0.37553,-0.38429,-0.0081433,-0.57902,0.073898,0.47567,0.16123,0.45162,-0.56492,-0.35079,0.11869,-0.041999,-0.4881,-0.24078,0.14575,-0.26383,-0.26038,0.29627,0.15662,-0.40106,-0.46955,-0.37762,0.02064,-0.43759,0.089651,0.59544,-0.094022,-0.20714,0.12782,-0.44642,0.2323,0.063003,-0.23058,0.099256,-0.24348,0.22342,-0.12202,-0.097001,-0.25908,0.30416,-0.41647,0.060588,-0.33087,-0.11626,-0.18425,-0.51052,0.27844,-0.21617,-0.050306,-0.54686,0.15711,-0.19323,0.2827,-0.47514,0.77158,-0.034981,-0.019999,0.097275,0.16816,0.12563,-0.050475,0.18076,-0.11142,-0.21616,0.29195,-0.057786,-0.2505,0.078086,-0.65854,-0.20336,0.10717,-0.13603,0.061724,-0.11115,0.15556,0.071718,-0.0095785,-0.27587,0.14516,0.19027,0.39088,-0.12571,-0.19307,0.41315,0.4794,0.66196,-0.22623,-0.0089377,0.34952,0.41722,-0.07268,-0.00060268,0.73224,-0.53763,-0.26017,0.57159,0.26017,-0.16348,-0.026223,-0.12132,-0.26523,0.25732,0.10632,-0.46511,0.17401,-0.08063,0.040345,0.14809,0.071497,-0.4767,-0.04698,0.30917,0.50114,0.49812,0.18568,-0.23741,-0.0883,0.31509,0.23328,0.10718,-0.025941,0.010983,-0.52236,-0.36501,1.14,-0.078955,0.43664,-0.018633,0.12697,-0.40861,-0.097136,-0.70938,-0.27445,0.18805,0.22803,-0.06808,-0.31143,-0.13471,0.33667,-0.44144,-0.077656,0.27329,-0.01175,0.14856,0.539,0.34871,0.16946,-0.19878,-0.055828,-0.030485,-0.58586,0.26806,0.32037,-0.48814,0.21674,-0.89393,-0.27943,0.082785,0.54373,0.30641,0.079432,-0.34968,-0.37836,-0.02255,0.32161,0.23336,-0.2784,0.3476,0.057943,-0.5574,0.088998,-0.15989,-0.35752,0.34341,0.081236,-0.15284,0.11744,-0.3267,-0.068001,0.10999,0.19565,-0.21774,-0.12537,0.30411,0.03796,-0.398,0.4741,0.061004,-0.083459,-0.33121,0.26754,-0.18182,-0.25619,-0.24813,-0.30985,-0.11558,-0.47259,-0.15831,-0.13527,-0.060321,-2.1415,0.33702,-0.11064,0.14542,-0.54827,-0.093461,-0.17059,-0.25297,-0.032978,0.63479,0.10971,-0.13702,0.22243,-0.1171,-0.23065,-0.36059,0.2452,0.36432,-0.0022822,0.64303,0.1207,0.049559,0.051595,0.97932
dress,-0.62674,-0.10394,-0.35119,0.21756,-0.2812,-0.041454,-0.20956,0.0082139,0.014152,-0.98683,0.29653,0.23973,-0.16281,0.69732,-0.28166,-0.57722,0.61489,0.18432,-0.53598,-0.026746,-0.091363,-1.0655e-05,0.3905,0.29741,-0.69476,-0.56674,0.046048,-0.044878,0.27778,0.11571,0.28423,-0.24554,-0.12412,0.12969,-0.91579,0.75868,0.1009,0.075075,0.37597,-0.28849,-0.091504,-0.72007,-0.0026172,-0.2264,-0.1684,-0.23273,0.18469,-0.26558,0.071328,-0.099455,0.05771,-0.14206,0.33873,-0.58049,-0.44895,-0.65174,-0.69426,-0.9766,0.28653,0.014345,0.52344,-0.39445,-0.12764,-0.035318,-0.36866,-0.78688,0.29448,-0.053418,0.27507,0.20595,0.11045,-0.17787,-0.2407,-0.26643,0.18166,0.33613,0.18843,0.24558,-0.43306,-0.4282,-0.28667,0.29037,-0.39065,-0.20201,0.73041,0.13969,0.19305,0.026546,-0.075088,0.20489,-0.53729,0.095659,0.15826,0.22857,-0.003734,-0.061572,0.31135,0.060075,0.25046,0.10783,0.69073,0.56754,-0.22793,-0.11157,-0.36071,0.18694,0.47157,0.3127,-0.0057754,0.040416,0.17807,0.73345,-0.059468,0.398,-0.1101,0.20406,0.11429,0.41487,0.15558,-0.91342,0.15613,0.33057,0.82833,0.16657,-0.011297,-0.1406,0.027715,0.17255,0.10299,-0.037639,0.15663,-0.39614,-0.14953,-0.006815,0.026054,0.3038,-0.34322,-0.23277,-0.17795,0.26048,0.05577,0.16868,-0.024158,-0.42382,-0.095212,-0.044879,-0.1938,-0.099206,0.41231,0.39928,0.010378,0.12136,0.36942,-0.71826,0.27203,-0.16864,-0.22169,-0.31295,0.55455,0.24566,0.093537,-0.24791,-0.30417,-0.10839,-0.20591,-0.1426,-0.48406,0.48612,0.28556,0.13601,-0.49919,0.015521,-0.098815,0.030341,0.13729,-0.35768,0.061841,0.68095,-0.25306,0.073388,-0.041408,0.019299,0.19628,-0.26353,0.31297,0.35845,0.42479,0.34665,0.078535,-0.4331,0.16497,-0.18932,-0.37463,0.16856,0.095496,0.18139,-0.79567,-0.27234,-0.31023,-0.90079,0.97775,0.039661,0.7141,0.71496,1.0651,-0.050777,0.49358,0.51251,-0.57751,-0.16322,-0.074272,-0.1813,0.023794,0.60541,0.049659,-0.3179,1.1442,-0.9231,-0.054919,-0.28874,0.25827,0.13271,0.33707,0.54579,-0.068313,-0.1549,0.15591,-0.008288,0.3456,0.043123,0.54711,0.089527,-0.4717,0.22176,0.56354,0.093359,0.19982,-0.33911,-0.10226,0.46815,0.40148,-0.10855,-0.27517,0.80044,-0.16396,0.86628,-0.53153,-0.49585,0.49227,-0.13488,0.24167,0.34727,-0.082801,-0.2127,0.35837,-0.63224,0.10822,0.52492,0.1153,-0.37781,-0.16894,-0.045417,0.46968,-0.30187,-0.82696,-0.51131,-0.16794,0.24929,-0.1773,-0.072442,0.034033,-0.33523,0.28609,0.043064,-0.47368,-0.024811,-1.2771,0.072154,-0.54013,-0.25883,0.4089,0.14222,0.30463,-0.2101,-0.2411,0.4229,-0.31118,0.61183,-0.22644,-0.27363,0.35295,-0.33466,-0.56336,1.1848,-0.10471,-0.58642,0.44058,0.39987,0.9989,-0.096597
dresser,0.051637,0.27522,-0.48432,-0.2095,0.46917,-0.11525,-0.98265,-0.59278,0.05265,-0.47173,-0.16775,0.25299,0.34613,0.54447,0.22323,0.24633,0.53314,-0.34476,-0.0021328,-0.58972,0.034384,0.67129,0.21953,-0.11488,0.38327,-0.23198,0.17235,-0.33176,0.32918,-0.39146,-0.14127,0.29905,0.39471,0.96845,-0.056953,-0.40004,-0.54377,-0.49209,0.016512,-0.26702,0.21689,-0.48527,0.21607,-0.049616,0.33994,-0.15116,-0.22988,-0.44934,0.070388,-0.30688,-0.16931,0.11498,0.11778,-0.31473,-0.58436,-0.43551,-0.17166,0.10341,-0.25454,-0.14109,0.41565,0.49637,0.21253,0.24411,0.058044,-0.14341,-0.46196,0.39099,-0.28668,-0.032074,-0.27019,-0.15747,0.37396,-0.016745,0.60311,-0.025888,-0.017531,-0.31056,-0.57401,-0.76174,-0.75311,0.30108,-0.40601,-0.15474,0.25592,-0.11416,0.29961,-0.17303,-0.48956,0.25653,0.24713,0.46701,0.71159,-0.011755,0.10746,-0.01365,0.21664,-0.012574,0.57938,0.11887,0.32875,-0.27266,-0.3587,0.30558,-0.45277,-0.32545,-0.20387,0.1611,0.16698,0.11795,-0.14991,0.20077,-0.29586,0.28376,-0.33917,0.049403,-0.15107,-0.61266,0.3155,0.64815,0.60383,0.1132,-0.0068863,-0.064339,0.028845,-0.15921,-0.22329,0.10785,-0.4955,-0.17211,0.69734,-0.30515,-0.39402,-0.38894,-0.12336,-0.16113,-0.48574,-0.069349,0.21656,-0.30123,0.017122,-0.40742,0.44772,0.20509,-0.069195,0.28839,0.22565,0.30983,-0.11602,-0.22546,-0.32364,0.62339,-0.61986,-0.64385,-0.64837,-0.2464,0.13463,-0.63698,0.97111,0.13963,0.39578,-0.38501,0.10034,0.151,0.094603,0.44465,0.47433,-0.0048682,0.55946,0.052896,-0.32537,0.86573,-0.42322,-0.31049,-0.35803,0.033073,-0.055396,0.36691,-0.76642,-0.15543,0.45452,-0.77413,0.58893,0.352,0.40821,-0.10058,0.60763,0.18393,-0.0095161,0.3907,-0.031771,-0.26292,-0.090612,0.28181,0.46546,-0.0084912,-0.33567,-0.29375,-0.44781,-0.17039,0.048879,-0.32337,0.29949,-0.056639,-0.077779,0.21378,-0.028603,-0.2015,0.41541,-0.36429,-0.06677,-0.22406,-0.30107,-0.20237,0.85162,0.11611,-0.15728,-0.16834,0.47491,0.17477,-0.46371,-0.018192,-0.091841,0.073211,-0.24196,-0.49437,-0.48626,0.15143,0.36294,-0.58262,-0.22614,0.41684,-0.53438,0.28684,-0.074793,0.025767,0.071458,0.21657,-0.56601,-0.035467,0.81789,0.085038,-0.42542,0.17367,-0.18401,0.20776,-0.045309,-0.49641,0.3053,-0.73839,0.094525,0.064153,-0.078912,-0.51866,0.54205,0.21821,0.34859,-0.45893,0.098396,0.50547,0.38092,0.037221,0.35477,-0.0021818,0.89041,0.089827,0.43459,0.41101,0.22617,0.42214,-0.61416,-0.64494,0.54927,-0.2016,0.60427,0.083457,0.71146,-0.45526,-1.0351,-0.90859,0.16771,0.39403,0.095759,-0.23578,0.042615,0.6486,0.12123,0.1316,-0.55633,-0.49625,0.41834,0.30265,0.43818,0.75428,-0.0068158,0.48368,0.33104,0.11947,0.4733,0.64044
eye,0.21663,-0.22844,0.2579,-0.37276,0.45517,-0.32726,0.017246,-0.19378,-0.20021,-1.6391,0.20285,0.10139,-0.08283,0.34103,-0.0089206,0.61282,-0.27788,0.3786,-0.33233,0.024117,-0.040495,0.045968,-0.08136,0.31526,0.052327,0.045233,-0.3309,-0.40073,0.42716,-0.40657,0.24284,0.32012,-0.54971,0.44766,-1.2575,0.40171,-0.074957,-0.036623,-0.18683,-0.056027,0.09755,0.16146,0.10757,0.026005,-0.39422,-0.20785,0.20296,0.17307,-0.36176,0.13868,-0.069611,-0.56233,0.73491,-0.0060225,-0.48293,-0.4225,-0.15545,0.062102,0.71549,0.18063,-0.1837,-0.14118,-0.24911,0.52,0.079836,0.29221,0.31644,-0.67598,0.43126,0.065,0.1772,0.13919,0.13265,-0.045942,0.52374,-0.93,-0.023461,-0.26534,0.0505,-0.67282,0.23714,-0.11161,-0.47786,0.35179,0.054052,-0.16862,0.2292,-0.5509,-0.17437,0.1777,-0.16878,0.26768,0.13083,0.45909,0.30209,0.25493,-0.11562,-0.074992,0.36157,-0.63995,0.23956,-0.043762,-0.40567,0.24229,-0.00032203,0.42139,0.53211,-0.19929,-0.47163,0.44201,0.38102,-0.047082,-0.14788,0.23742,0.37981,0.1421,-0.45783,0.20765,-0.39043,-0.1539,-0.64737,-0.33247,0.045549,0.21936,-0.0010269,-0.4301,-0.38167,0.019971,0.24427,0.21562,-0.029012,0.041671,0.39812,0.71018,-0.31595,0.045739,0.26552,0.19547,-0.073365,-0.32712,0.42032,0.30558,-0.35888,0.20629,-0.057758,0.46748,0.021229,0.7439,-0.2947,-0.16931,0.49869,-0.12075,0.12114,-0.18397,0.1513,-0.35369,0.22169,-0.11855,0.57415,0.33797,0.067484,-0.3117,0.39709,0.20995,0.34885,0.17086,0.060729,0.12051,0.48133,0.16988,-0.052287,-0.041926,0.3834,-0.24063,0.49901,-0.4758,-0.014219,-0.047128,-0.19324,-0.25443,0.29021,0.0014474,-0.6456,-0.10775,-0.14066,-0.48613,0.51767,-0.50542,0.27427,-0.12646,-0.6531,0.094707,-0.16022,0.54959,-0.0094697,0.54635,0.50006,-0.48903,-0.18922,-0.027165,1.7353,0.29774,0.29786,-0.25976,-0.59154,0.75326,-0.85692,-0.21303,-0.15415,-0.083854,0.55442,-0.68253,0.10179,0.3479,0.26898,-0.35019,0.57027,0.091213,0.36708,0.17412,-0.05193,-0.11321,-0.13649,0.38126,-0.40281,0.050725,-0.082988,-0.071747,0.051021,-0.12588,0.75411,0.0008885,0.12738,-0.76811,-0.50593,-0.52992,-0.28831,-0.27614,-0.33028,-0.43984,0.29783,0.19575,-0.23352,0.57274,-0.74481,-0.59908,-0.35106,0.057718,-0.13361,-0.28379,-0.10694,0.1812,-0.31709,0.41843,0.33795,-0.080449,-0.27136,-0.40338,-0.79074,0.43195,0.082186,0.62774,0.0085855,0.4085,-0.17767,-0.25041,-0.14787,-0.22119,-0.70039,0.055355,0.030221,0.27917,0.31817,-0.35084,-0.16097,0.054509,-1.1781,0.17938,-0.39604,-0.37017,0.26623,0.0028339,0.097202,0.21395,0.13425,0.18474,-0.17051,0.069338,0.11187,0.1821,-0.30683,-0.34299,-0.31169,-0.4011,-0.21904,-0.39461,0.1485,0.24393,0.19932,-0.088977
fly,0.38866,-0.056074,-0.38375,-0.027497,-0.15096,0.63417,-0.15396,0.39134,0.41153,-0.95287,0.86955,-0.58866,-0.49197,-0.91573,0.2048,0.16008,0.18267,0.27362,0.21193,0.17589,-0.13662,-0.0018012,0.089953,0.0043373,0.23773,-0.095502,-0.043136,0.089699,-0.2382,0.20684,0.19438,-0.51839,-0.24306,-0.37777,-0.56176,-0.26968,-0.42863,0.11097,-0.5722,0.52187,-0.58787,0.69254,-0.014643,-0.07863,-0.04155,0.1204,0.23233,0.12423,0.64058,-0.051455,0.088352,-0.57457,0.052668,0.1022,-0.84363,-0.019501,-0.097325,-0.23706,0.073594,0.29899,0.16805,-0.43109,0.022256,0.00062274,-0.17427,-0.054264,0.52288,0.17244,0.22853,0.4931,0.32947,-0.053203,0.066846,0.34859,0.091958,0.36509,0.065952,0.63955,0.46226,-0.12559,-0.50957,-0.25585,-0.45556,-0.13923,-0.43744,-0.34459,0.30243,-0.15356,0.055717,-0.285,0.52578,0.65771,-0.43933,-0.31986,0.079944,0.18479,-0.42055,0.6515,-0.38676,0.42925,0.22616,-0.2472,0.12296,0.4247,0.21355,0.053285,0.64873,-0.34546,0.072264,0.29838,0.15961,-0.23678,-0.55462,-0.076814,0.11294,-0.027414,-0.24042,0.16344,0.074893,-0.41293,0.14242,-0.17229,0.39575,0.035941,-0.18531,0.30079,0.23335,-0.11992,0.60491,0.12823,-0.22848,0.057814,0.18666,0.3267,0.18931,0.013909,-0.57459,-0.28062,-0.59897,-0.45888,-0.24441,-0.25612,-0.14851,-0.47963,-0.82016,-0.20733,0.055476,-0.15585,-0.18499,0.12029,0.58905,-0.16607,0.19691,-0.084095,0.75463,-0.2292,-0.48834,0.054301,0.37635,0.16423,0.27261,-0.48078,0.23724,0.089622,-0.071068,-0.24748,-0.0057401,0.38484,0.039435,-0.055545,-0.78428,-0.64535,0.24718,-0.18299,-0.019826,0.022248,0.084231,-0.19391,-0.1788,-0.12714,0.69848,0.38525,0.011144,0.33122,0.056181,-0.21912,-0.12606,0.14832,0.17239,-0.1662,-0.35391,0.49977,0.21033,-0.56549,0.1676,-0.073909,-0.1044,0.34015,0.049213,-0.030711,1.0893,0.53733,-0.51043,-0.32115,0.49159,0.5652,-0.057412,-0.2831,-0.26476,0.2575,0.09906,-0.89885,0.0033853,0.41685,0.15009,-0.36227,0.01217,-0.058147,-0.12034,-0.25651,0.76093,0.039011,0.21052,-0.10898,-0.4482,-0.11574,0.57045,0.33673,-0.078791,-0.10251,0.010085,0.38535,0.21491,-0.10602,0.057569,0.2584,-0.78982,0.54671,0.094614,-0.024649,-0.14577,-0.3462,-0.47623,-0.022273,0.25203,-0.14445,-0.072641,-0.038978,-0.094946,0.13382,-0.18533,0.25579,0.050451,-0.059285,0.30217,0.27803,-0.19751,-0.18476,0.22532,-0.73475,0.50415,-0.37238,-0.05422,-0.087724,-0.089379,-0.15505,-0.58715,-0.44097,-0.19142,0.40652,0.23794,0.38063,0.22926,-0.021006,0.0073374,-0.33833,-2.1277,-0.11787,-0.35579,-0.58987,-0.49263,0.60205,-0.14472,0.18789,-0.89529,-0.14094,0.57255,0.66307,-0.41877,-0.23153,0.80064,0.044273,-0.15974,-0.3852,-0.1423,-0.089724,-0.088137,-0.53341,0.0013488,0.20618
foot,-0.3469,0.17916,-0.4711,-0.18487,-0.10906,-0.38861,0.068786,0.24276,-0.12948,-0.85186,0.032698,-0.080295,0.2716,0.10544,0.12067,0.55856,-0.068677,0.45861,0.27578,0.14151,-0.50226,-0.0027365,0.13282,0.042363,-0.25026,0.63529,0.083896,-0.44125,0.64066,0.65939,0.23818,0.29237,0.31358,-0.29756,-0.31529,-0.17284,0.36633,-0.25401,-0.19912,-0.011696,-0.49243,-0.2359,-0.12496,-0.09861,-0.039968,-0.16547,0.78586,-0.048175,0.38452,0.48777,-0.13263,-0.10563,0.3658,0.14061,0.12471,-0.066871,-0.10015,0.19792,-0.41478,0.3224,0.038144,0.34,0.017133,0.074581,0.085377,-0.35538,0.25426,-0.22195,-0.15452,-0.49661,0.4036,0.2455,0.25523,0.21843,-0.49554,-0.23228,0.13324,-0.26757,0.33778,-0.06113,0.022075,0.098929,0.22633,-0.095769,-0.060448,0.22485,0.25112,-0.30193,0.098622,0.10126,0.84689,-0.30325,0.40151,0.23901,0.085159,-0.81799,-0.16319,0.039735,0.2362,-0.080462,-0.15095,0.61571,-0.29321,-0.49174,-0.56163,-0.091899,0.46798,-0.066185,-0.17318,0.032116,-0.099714,0.02292,-0.29779,-0.17276,-0.34056,0.048643,-0.18526,-0.15825,-0.095043,-0.13288,-0.42877,-0.30351,0.00050578,-0.091924,-0.37629,-0.023186,-0.10449,-0.30652,0.24802,-0.12979,0.51997,0.9777,-0.46982,0.50408,0.16046,-0.20045,0.087386,-0.14419,-0.41911,-0.18493,-0.68787,0.16695,-0.14561,0.59921,-0.94894,0.13016,-0.55671,0.11618,-0.91051,0.24642,-0.036987,0.23149,-0.25329,-0.20442,0.46345,0.15182,-0.5486,-0.3734,0.35247,0.51494,0.54952,-0.13211,0.30876,-0.76798,1.085,0.13375,0.23759,0.16583,0.4583,0.27524,-0.55007,0.54512,0.11635,-0.069948,-0.16993,-0.22992,-0.22108,0.39641,0.24351,-0.20666,-0.018173,-0.15736,0.067083,-0.092188,-0.16297,-0.65967,0.45171,0.46575,0.36891,0.53557,-0.0044464,0.14206,0.31599,0.074985,-0.090324,0.14501,-0.12793,-0.55561,0.11111,0.701,1.4408,0.29741,-0.26248,0.18158,0.10077,0.24472,-0.45946,0.21066,-0.33143,0.40581,0.20899,-0.368,-0.06125,-0.42555,0.21609,-0.14619,0.060553,-0.08752,0.13825,-0.18375,0.35997,-0.12191,0.072718,0.32884,0.43943,0.19812,0.042655,-0.17613,-0.46307,0.41306,0.2891,-0.025882,0.16467,-0.019127,0.41056,-0.29725,-0.45336,0.18954,0.21818,-0.35118,0.23336,-0.63526,0.06147,-0.5523,-0.34947,-0.10097,0.016194,0.57282,-0.15877,0.21909,-0.28353,0.42376,0.33065,-0.68964,0.46742,0.10301,-0.77023,-0.49439,-0.04753,0.2667,-0.19189,-0.12709,0.2851,-0.40672,-0.53245,-0.22664,-0.032185,0.098675,-0.0030353,-0.43745,-0.13004,-0.38931,-0.19578,-0.17776,-0.24945,0.021021,-1.7144,0.40874,-0.57139,0.3178,0.31672,-0.55155,0.55258,0.58921,-0.14725,0.54538,-0.35364,0.060644,-0.040362,-0.21524,0.33003,0.038614,0.11772,0.1167,0.096751,0.065923,0.20609,0.13018,0.3161,-0.38647
glass,0.04099,0.13619,-0.81689,-0.9916,0.37892,0.39081,-0.22949,-0.37877,0.21583,-1.1984,0.16672,-0.30547,-0.081734,0.12848,0.040826,-0.74867,-0.98594,0.53171,-0.29291,0.34542,0.12791,0.43052,0.11428,0.95551,-0.17667,-0.35442,-0.95558,-0.23349,-0.56858,-0.47931,-0.058634,0.72224,-0.11419,0.27298,-0.6382,0.36303,-0.19401,0.14702,0.33394,0.2055,-0.29433,-0.41881,-0.1462,0.4406,-0.45864,-0.036367,-0.41175,-0.0045526,-0.45936,-0.21856,0.16106,0.45948,0.23681,0.0014177,0.24123,0.27403,-0.13151,0.24098,0.020147,0.2727,0.038952,-0.14469,0.3082,0.53831,0.38908,-0.13958,-0.45232,-0.10466,0.24098,-0.25907,-0.17618,-1.0271,-0.12013,0.22605,-0.025066,0.25774,-0.16809,-0.42304,-0.21492,-0.43219,-0.55208,0.19344,-0.66866,0.35899,0.17891,0.079654,0.39193,0.065327,-0.22377,-0.030672,0.71644,0.035494,0.21503,0.49341,0.081929,0.18368,0.12042,-0.23405,0.75291,-0.25132,-0.15309,0.68052,0.37951,-0.34665,-0.0044181,-0.13719,0.095337,0.19071,-0.27973,0.27085,-0.15654,0.19643,-0.033285,-0.23972,-0.28201,0.00091435,-0.50878,0.21521,-0.55202,-0.30172,-0.11406,0.18888,0.016186,0.13361,-0.11402,-0.89376,0.15345,0.0074726,-0.055346,0.1719,-0.044607,1.2514,0.40957,0.94816,-0.0044744,0.45978,-0.34452,0.10799,0.21946,-0.70953,0.3287,0.70534,0.19603,-0.079916,0.20181,-0.050543,0.087941,-0.23314,-0.15513,-0.28093,0.44269,-0.47496,0.026413,-0.68376,0.29459,0.39774,-0.60591,-0.47336,0.091112,0.19924,0.062606,-0.24222,0.34757,0.14752,0.73199,0.2603,0.044905,0.28358,0.34892,0.17286,-0.22495,0.18869,0.25048,-0.14059,-0.056871,-0.27501,-0.41386,0.1313,0.0071233,-1.2205,0.21367,-0.39732,-0.14392,0.13502,0.35188,-0.26269,0.77314,0.34915,0.26766,0.66923,0.91847,0.17944,-0.18935,0.20207,-0.26604,0.4777,-0.27846,0.40409,-0.56107,-0.045704,0.79854,0.43238,0.053951,-0.09262,0.083631,0.27713,0.12456,-0.41417,-0.78044,0.3169,0.75541,0.41729,-0.45473,0.10432,0.22532,0.016906,0.29437,-0.047791,-0.05052,0.014803,0.36127,0.24877,0.38518,-0.16045,-0.3789,0.21821,0.043366,-0.22933,0.60457,-0.45656,-0.27463,-0.23138,0.28236,-0.04921,0.43045,0.16739,0.17633,-0.23755,-0.93003,-0.24724,-0.72308,-0.40528,-0.71026,0.046986,-0.52604,0.20906,-0.62195,-0.72432,-0.021567,0.015211,0.77578,-0.82863,0.32546,-0.48183,0.43026,0.21236,-0.10105,-0.66754,0.30761,0.30427,-0.081238,-0.25317,0.38779,0.20262,0.38854,-0.58871,-0.08397,0.26166,0.18648,0.015831,-0.3012,-0.24115,0.18491,-0.15656,-0.55586,0.57808,-1.7425,-0.0043733,-1.1744,-0.35209,-0.17437,0.04057,-0.2063,-0.53093,0.58151,0.43276,-0.16144,0.36468,0.41298,0.11672,0.1262,0.032806,0.2064,0.71062,0.62679,-0.19034,0.19389,-0.28608,0.13269,0.2338
hammer,0.24715,0.19081,-0.22681,0.25621,0.29314,0.43315,-0.48915,0.23493,-0.22346,-0.37204,0.081313,-0.55561,0.30253,-0.17189,-0.35126,-0.025339,-0.308,0.2774,-0.043986,0.1051,0.62787,-0.17198,0.51358,0.2608,0.25943,0.079748,-0.14283,-0.25672,0.31856,-0.15347,0.49506,-0.29692,0.24487,0.5298,-0.5075,-0.082696,-0.69339,0.39905,-0.48892,0.20812,0.15854,0.40029,-0.28511,-0.23919,0.45468,0.17291,-0.67013,-0.46194,-0.17629,0.017425,0.41963,0.13367,0.16652,-0.40467,-0.13029,0.24624,-0.73591,0.63774,0.053275,-0.094822,0.36179,0.48115,0.13355,0.087544,-0.15527,-0.44625,-0.25087,0.055917,0.22114,-0.69502,-0.013159,-0.011834,-0.28188,0.10577,-0.49373,0.053151,-0.18627,-0.5196,0.039594,-0.15803,-0.29996,-0.40618,0.3697,-0.50638,-0.088777,0.16901,-0.00244,0.34971,-0.14572,-0.81146,0.38769,0.27662,-0.25324,-0.33386,0.43827,-0.87798,-0.10791,-0.28079,0.098083,-0.40812,-0.69843,-0.27614,-0.15093,-0.010001,0.88129,-0.48528,-0.0016805,-0.5396,0.086721,-0.65344,-0.053562,0.44176,-0.51833,0.32312,0.1514,0.081344,-0.97113,0.01383,0.41482,-0.34554,0.082017,-0.055784,-0.20237,-0.29459,-0.056478,0.76937,0.58279,0.55053,-0.20128,-0.47078,-0.19252,0.38671,0.34407,-0.28207,-0.058901,0.21022,-0.61889,0.35096,0.32385,0.33984,-0.079532,0.0099393,-0.53951,-0.30263,-0.26009,0.066317,0.27459,0.033704,-0.032616,-0.0020364,-0.015675,0.18315,0.049039,-0.8855,-0.07708,0.20971,-0.02092,-0.61316,-0.36896,0.39189,0.12989,0.21897,-0.095569,-0.51716,0.054231,0.58373,0.11633,0.22994,0.57141,0.13418,-0.044989,0.26619,-0.048055,-0.34283,0.61254,0.076239,0.51235,-0.073603,0.20134,0.028534,0.18977,0.12543,0.035427,0.51294,0.074816,-0.076825,-0.043979,-0.058063,0.55812,-0.12892,0.24795,-0.24751,0.21549,0.091684,-0.25275,0.18429,-0.086389,0.00078596,0.13681,-0.29373,0.56059,0.31401,0.51707,-0.25132,-0.23346,-0.15364,0.43538,-0.26294,-0.25312,0.35535,0.22268,-0.13354,0.25837,0.30773,0.65032,-0.34756,0.67918,0.30678,-0.51335,-0.20704,-0.10388,-0.4595,0.55864,-0.29802,-0.70089,-0.091375,-0.20509,-0.25269,-0.14563,-0.59135,0.079598,0.021948,-0.17396,-0.086922,0.075189,0.15834,-0.36901,-0.165,0.11056,-0.25182,0.043579,0.17033,-0.21521,-0.38184,-0.21439,-0.31401,-0.32393,0.012026,-0.7988,-0.14221,-0.34849,0.2077,-0.093467,-0.59066,0.38514,-0.25906,-0.25514,-0.38483,-0.38884,0.031985,-0.25209,-0.58639,0.42034,0.4416,-0.43744,0.26952,-0.82597,0.46105,-0.43702,0.078184,-0.19205,-0.54897,-0.17091,0.33962,-0.21362,-0.57641,-0.63841,-0.49556,0.15405,-0.3007,0.06898,-0.15985,-0.66015,0.29026,0.52313,0.41403,-0.27805,-0.41415,-0.29801,0.20652,-0.49064,-0.20499,0.046058,-0.00061687,-0.20932,0.054903,0.53013,0.24316,-0.086038,0.63675
hand,-0.2145,0.22084,0.058616,-0.51974,-0.2748,-0.23727,-0.20111,-0.20894,0.23519,-1.6505,-0.076784,-0.061265,-0.0848,-0.058374,0.045627,0.11289,-0.37214,0.16134,-0.1646,0.16516,0.099041,-0.15151,0.13906,-0.053116,-0.17832,0.2089,-0.2743,-0.001462,-0.044631,0.1429,0.36268,0.2,-0.060255,0.3213,-0.86228,0.10704,0.11286,-0.053674,-0.47598,-0.10723,-0.032795,-0.048137,-0.18763,-0.28793,0.3334,-0.24138,0.40334,-0.21344,0.49083,0.52289,0.14374,-0.27587,0.17637,0.18825,-0.14346,-0.17534,-0.29344,0.075381,0.25118,0.24492,0.18582,0.14397,-0.019309,0.55125,0.042039,-0.24414,-0.29857,-0.11452,-0.012705,-0.14679,0.53238,-0.19276,0.18873,0.35532,0.48107,-0.20948,-0.13878,-0.037116,-0.20308,0.13858,-0.10777,-0.13926,0.070111,0.16302,-0.059142,-0.098202,-0.26948,0.18524,-0.59181,0.18959,-0.14116,-0.169,-0.38322,-0.24059,0.19924,-0.37242,-0.7379,-0.20605,0.21567,-0.016723,0.089181,0.11351,-0.24164,-0.027365,-0.16268,-0.076244,0.079767,0.11947,-0.33453,-0.24957,-0.12243,0.2395,-0.29039,0.015272,-0.077299,0.40885,-0.73846,0.024481,-0.11257,-0.79005,-0.2285,-0.13211,-0.064979,-0.30893,-0.48173,0.13178,-0.040804,-0.28629,0.046205,-0.18684,0.031542,0.40143,0.02419,0.49452,-0.46381,0.12122,0.44757,-0.18299,0.356,0.23396,-0.054811,0.12771,-0.17469,-0.10274,-0.24959,0.36752,-0.025214,-0.15244,-0.18497,-0.021281,0.0090463,0.13874,-0.14988,-0.23991,0.047028,0.15655,0.10125,-0.14071,0.21288,0.040103,0.38889,0.078362,0.13966,-0.1065,0.27843,0.11933,0.38833,0.055002,0.0842,-0.066126,-0.13083,0.086969,-0.39729,-0.023565,0.20103,-0.47455,-0.084343,0.56192,-0.45765,-0.037474,0.2584,0.072802,0.44356,-0.080009,-0.16814,-0.088446,-0.068818,0.3382,0.3821,0.10732,0.056271,0.25371,0.087758,0.22585,0.033566,-0.065768,-0.075838,0.15846,-0.057461,0.075333,1.0967,0.2448,0.32188,0.012149,0.17809,-0.38257,0.18854,0.10084,-0.22677,-0.14179,0.10268,-0.048943,0.15282,0.0722,0.4756,-0.080019,0.031997,-0.18668,-0.42111,0.30572,-0.24684,0.13776,-0.068952,0.13016,-0.23348,0.11698,0.22838,-0.061558,-0.24901,-0.1113,0.29631,-0.37714,-0.037672,0.30527,-0.099259,0.54444,-0.33649,-0.27271,-0.27178,-0.33685,0.1783,-0.0007864,-0.052387,0.08139,-0.13668,-0.15595,-0.10817,0.1061,-0.2183,0.026124,0.14094,-0.22689,0.35078,-0.31255,0.76616,0.11168,-0.23322,-0.14748,-0.43908,0.0061922,-0.037197,-0.39125,-0.1173,0.44041,-0.49249,-0.096503,-0.16555,0.22649,-0.58382,0.17422,-0.37241,-0.16458,0.25458,0.15917,-0.040077,-0.40389,-1.9579,0.075244,-0.12061,-0.052649,0.2164,0.27509,0.24564,0.22086,0.28137,0.25286,0.071932,-0.2135,-0.1636,-0.2565,-0.10936,-0.052616,0.39934,0.12876,0.0056678,0.43004,0.065043,-0.15271,0.014143,0.0076468
